GIS
1
0.0
3
I
O
B
6
1600 0
713 0 1
66 0 1 2
101 0 2
560 1
2 1 2
3042
word=GTE
word=Valley
word=constitutional
word=trader
word=Beta
word=Big
word=Telephone
word=takeover
word=April
word=Journal
word=Ski
word=Newport
word=industries
word=Average
word=studio
word=concerns
word=3.5
word=nothing
word=candidates
word=Star
word=U.S.
word=kids
word=lives
word=household
word=lending
word=restrictions
word=disclosure
word=Hurricane
word=Banc
word=Association
word=ticket
word=sheet
word=Many
word=Sells
word=protection
word=opposition
word=widow
word=economy
word=Party
word=effort
word=cents
word=commission
word=Columbus
word=Mrs.
word=payments
word=bond
word=situation
word=troubles
word=She
word=region
word=Social
word=capital-gains
word=Report
word=college
word=N.J.
word=phone
word=energy
word=GOP
word=huge
word=customer
word=dividends
word=transportation
word=mood
word=industrial
word=shareholders
word=forces
word=opportunities
word=version
word=offerings
word=victims
word=editor
word=consumption
word=Adobe
word=fertilizer
word=Steven
word=various
word=BanPonce
word=producer
word=economists
word=others
word=Raymond
word=book
word=proposals
word=Fox
word=handful
word=Mark
word=toll
word=Bay
word=calculations
word=executive
word=year-ago
word=Hong
word=cases
word=Bell
word=Garcia
word=Brothers
word=America
word=Microsoft
word=London
word=segment
word=1.25
word=Loan
word=hearings
word=receivables
word=Some
word=compensation
word=Continental
word=respondents
word=doctor
word=recent
word=films
word=Class
word=1,000
word=Tokyo
word=Merieux
word=younger
word=Britain
word=7.5
word=GNP
word=hands
word=reporters
word=section
word=experience
word=unit
word=THE
word=consultant
word=yields
word=tons
word=privatization
word=passengers
word=holiday
word=Samuel
word=franchisers
word=city
word=maturity
word=solicitation
word=Peters
word=Cordis
word=Japanese
word=Investors
word=tritium
word=message
word=projections
word=full-year
word=Roger
word=reaction
word=currency
word=deficit
word=strategies
word=him
word=period
word=division
word=current
word=deductions
word=Nicaragua
word=taxes
word=Hanover
word=Revenue
word=body
word=Fed
word=users
word=Those
word=Task
word=Securities
word=style
word=policy
word=slide
word=Jersey
word=Northwest
word=boiler-room
word=World
word=stuff
word=San
word=entire
word=Jr.
word=ratings
word=Harvard
word=months
word=Chandler
word=futures
word=day
word=asset
word=special
word=programs
word=voters
word=Washington
word=total
word=Bill
word=statements
word=industry
word=East
word=bright
word=Johnson
word=changes
word=Mich.
word=associates
word=Shippers
word=activities
word=world
word=pool
word=fourth-quarter
word=piece
word=Services
word=party
word=performance
word=enterprises
word=furriers
word=services
word=Sandinista
word=Paramount-MCA
word=decision
word=budget
word=Central
word=July
word=things
word=Inc.
word=metal
word=parts
word=entertainment
word=Stanford
word=Information
word=Industry
word=nonperforming
word=Paul
word=decade
word=June
word=UAL
word=earthquake
word=source
word=guys
word=tasks
word=broad
word=shippers
word=commodity
word=housing
word=per-share
word=Democrat
word=rejection
word=conflict
word=front
word=season
word=Our
pos=#
word=quality
word=nine
word=Florida
word=fares
word=Vietnamese
word=Broker
word=weakness
word=Poodle
word=August
word=center
word=after-tax
word=Entertainment
word=us
word=category
word=5,000
word=requirements
word=efforts
word=Medical
word=commodities
word=Chase
word=guidelines
word=words
word=Financial
word=reserve
word=Pictures
word=checks
word=Mitchell
word=northern
word=spot
word=taxpayers
word=sentence
word=pence
word=Westridge
word=Security
word=rice
word=security
word=pictures
word=Home
word=commitment
word=Schwartz
word=tickets
word=partnership
word=confidence
word=latest
word=rooms
word=school
word=department
word=programming
word=attorney
word=visitors
word=Krenz
word=catastrophic
word=bills
word=chances
word=Texas
word=artists
word=Falconbridge
word=speech
word=men
word=defensive
word=lawmakers
word=recovery
word=articles
word=worst
word=premiums
word=events
word=Portfolio
word=loss
word=Eagle
word=Airways
word=Trust
word=One
word=People
word=pretax
word=cancer
word=actual
word=leaders
word=planners
word=worker
word=Maalox
word=Gargan
word=Daily
word=supply
word=truck
word=American
word=Chan
word=massive
word=urban
word=franchisees
word=Bumiputra
word=Nicaraguan
word=conditions
word=tuition
word=300
word=FUNDS
word=authorities
word=Drexel
word=reforms
word=crude
word=coverage
word=capacity
word=table
word=choice
word=spokeswoman
word=personal
word=reasons
word=poll
word=government
word=freight
word=Harry
word=Stores
word=highest
word=Connaught
word=sellers
word=presence
word=shipments
word=David
word=high-risk
word=Sri
word=PLC
word=Southern
word=Davis
word=assistant
word=Telesis
word=St.
word=children
word=Capitol
word=numbers
word=Arbel
word=Park
word=Glazer
word=Supreme
word=Bob
word=litigation
word=campaign
word=slump
word=takeovers
word=Oil
word=carriers
word=experiment
word=Judge
word=damage
word=specific
word=hospital
word=age
word=4.6
word=track
word=4.5
word=4.7
word=leadership
word=warning
word=value
word=Swiss
word=advantages
word=amendment
word=them
word=eight
word=trouble
word=credibility
word=Magazine
word=organization
word=academic
word=Rates
word=3\/4
word=heavy
word=Telegraph
word=standard
word=3\/8
word=Christmas
word=Jerry
word=Soviet
word=democracy
word=Germans
word=development
word=Germany
word=Boston
word=400
word=growth
word=credit-card
word=neutrons
word=Wendy
word=Woolworth
word=Republican
word=shareholder
word=pilots
word=cattle
word=1990s
word=Green
word=Co.
word=criminal
word=Canada
word=tables
word=International
word=apparent
word=Such
word=unemployment
word=Meridian
word=paper
word=agents
word=Thi
word=Treasurys
word=problem
word=tendency
word=Chiron
word=strategy
word=documents
word=original
word=Chairman
word=Witter
word=machines
word=idea
word=life
word=employee
word=action
word=operators
word=response
word=package
word=price
word=California
word=Hugo
word=Reform
word=space
word=preferred
word=countries
word=Island
word=Profit
word=Batman
word=Gen.
word=ones
word=banking
word=modern
word=cold
word=debate
word=Other
word=insurance
word=What
word=ads
word=News
word=Olivetti
word=institutional
word=Springs
word=Labor
word=YOU
word=Industries
word=23
word=thousands
word=24
word=25
word=buy-back
word=26
word=21
word=22
word=settlement
word=one-time
word=start-up
word=precious
word=27
word=28
word=29
word=threat
word=U
word=S
word=investor
word=investments
word=Espectador
word=DEC
word=broker
word=hotel
word=12
word=13
word=morning
word=14
word=mother
word=16
word=17
word=18
word=19
word=sufficient
word=9
word=7
word=manager
word=8
word=Holiday
word=Holdings
word=Analysts
word=A
word=venture
word=China
word=associate
word=side
word=City
word=European
word=dangerous
word=approach
word=#
word=Cela
word=rubber
word=pound
word=County
word=auto
word=Tan
word=Ciba-Geigy
word=condition
word=Industrial
word=Mexican
word=Shearson
word=Investment
word=edge
word=steep
word=bonuses
word=Tax
word=steel
word=edition
word=impact
word=plastic
word=coal
word=over-the-counter
word=summer
word=Caribbean
word=previous
word=movement
word=Energy
word=unusually
word=month
word=trend
word=reason
word=contracts
word=letters
word=company
word=Asian
word=Markets
word=credentials
word=central
word=hot-dipped
word=nations
word=board
word=anything
word=professor
word=management
word=stock-index
word=international
word=portfolios
word=operator
word=rights
word=member
word=credit
word=whole
word=speculators
word=Her
word=Herbert
word=reporter
word=Pons
word=Salomon
word=Guber
word=Switzerland
word=Berlin
word=Poor
word=death
word=storage
word=Price
word=Reynolds
word=war
word=Philip
word=economist
word=imports
word=Partners
word=whatever
word=expansion
word=lines
word=Commission
word=Consolidated
word=rating
word=medical
word=fewer
word=jobs
word=Grand
word=fast-food
word=risks
word=Basir
word=parking
word=margins
word=George
word=Field
word=III
word=instructions
word=food
word=Los
word=Nelson
word=computer
word=Lotus
word=winter
word=firms
word=retailers
word=Conway
word=third-quarter
word=difference
word=hundreds
word=affiliates
word=bottom
word=promotion
word=weeks
word=Goldsmith
word=corporate
word=actions
word=commitments
word=N.Y
word=managers
word=Ohio
word=movie
word=bursts
word=Court
word=10-year
word=majority
word=Marshall
word=Rico
word=agency
word=biggest
word=improvement
word=prospective
word=Prudential-Bache
word=retail
word=Rica
word=Hewlett-Packard
word=distribution
word=Colgate
word=largest
word=0.5
word=due-process
word=0.2
word=About
word=MGM
word=0.3
word=final
word=reduction
word=0.9
word=Donaldson
word=officials
word=proceeds
word=Caterpillar
word=plants
word=colleagues
word=Schulman
word=deals
word=indictment
word=indexing
word=powerful
word=Products
word=excess
word=Associates
word=high-yield
word=pages
word=concern
word=Foreign
word=specialists
word=transaction
word=freedom
word=recessions
word=participants
word=pension
word=Rican
word=fears
word=areas
word=scientists
word=creative
word=wholesale
word=hostile
word=eye
word=Federal
word=coups
word=century
word=professionals
word=Ariz.
word=Two
word=institutions
word=Lambert
word=field
word=Exchange
word=rates
word=curve
word=Maine
word=discounts
word=Citibank
word=administration
word=private
word=labor
word=ownership
word=profitability
word=sources
word=heart
word=observers
word=years
word=acquisitions
word=interests
word=negotiations
word=delivery
word=MCA
word=payment
word=Cawthorn
word=Vickers
word=commissioner
word=Hutton
word=attention
word=United
word=game
word=Watson
word=IAFP
word=owners
word=rod
word=projects
word=research
word=Stevens
word=450
word=seven
word=approval
word=Lehman
word=McDonald
word=series
word=Parker
word=rest
word=Jack
word=boiler
word=Peter
word=Jackson
word=agreement
word=Ltd.
word=Steel
word=Stephen
word=basis
word=buyers
word=stories
word=500
word=membership
word=opening
word=fusion
word=Series
word=galvanized
word=Business
word=Transportation
word=It
word=They
word=Ashland
word=composite
word=tender
word=Burnham
word=members
word=levels
word=Latin
word=1980s
word=capital
word=pace
word=Hutchinson
word=He
word=assets
word=basic
word=pact
word=leader
word=fraction
word=Dr.
word=Systems
word=Hill
word=block
word=spring
word=volume
word=water
word=May
word=reputable
word=business
word=effect
word=mutual
word=organizations
word=their
word=chemical
word=companies
word=example
word=purchases
word=chief
word=Katz
word=aggressive
word=senators
word=Manhattan
word=third
word=Dow
word=Robert
word=B.A.T
word=H.
word=team
word=studies
word=A.P.
word=dollar
word=S&P
word=liquidity
word=director
word=discounting
word=options
word=floor
word=family
word=El
word=Angeles
word=electronic
word=discount
word=restructuring
word=light
word=F.
word=Daly
word=families
word=addition
word=industrials
word=contribution
word=statement
word=mutual-fund
word=crash
word=September
word=Michael
word=program
word=drives
word=instance
word=dependents
word=15,000
word=goals
word=E.
word=Co
word=Connecticut
word=Nasdaq
word=An
word=buy-out
word=system
word=Market
word=imported
word=concrete
word=Chicago
word=Development
word=thing
word=recession
word=businesses
word=D.
word=Evans
word=applicants
word=material
word=John
word=Edward
word=readers
word=You
word=S.
word=subordinated
word=Murray
word=Noranda
word=magazines
word=television
word=insurers
word=Moody
word=Digital
word=bulk
word=announcement
word=charity
word=annual
word=estate
word=quiet
word=R.
word=wage
word=Oriani
word=William
word=dollars
word=State
word=strength
word=Calif
word=couple
word=Computer
word=metals
word=universal
word=money-market
word=losses
word=IRS
word=Bridge
word=inflation
word=one-third
word=Malaysia
word=Partnership
word=language
word=Beach
word=Amoco
word=congressman
word=quarterly
word=Florio
word=neutron
word=major
word=Democrats
word=Lynch
word=millions
word=telephone
word=equipment
word=Express
word=contract
word=Ortiz
word=consensus
word=Radio
word=variations
word=Day
word=production
word=slopes
word=criticism
word=Mexico
word=society
word=My
word=fourth
word=commentary
word=books
word=Ill.
word=stores
word=failure
word=wake
word=La
word=Smith
word=catalog
word=Reserve
word=His
word=success
word=existing
word=Panama
word=job
word=positions
word=M$
word=M.
word=future
word=financier
word=agent
word=Gorbachev
word=Hochiminh
word=letter
word=airline
word=disorders
word=arena
word=affidavit
word=Department
word=few
word=Nynex
word=Banco
word=Amex
word=event
word=consumers
word=L.
word=States
word=victory
word=Quantum
word=bureau
word=outlook
word=analyst
word=regulations
word=string
word=Hollywood
word=conference
word=year-earlier
word=group
word=sale
word=employers
word=Van
word=your
word=Textron
word=legal
word=platinum
word=author
word=Europe
word=gap
word=95
word=90
word=country
word=Arias
word=Merrill
word=technical
word=complaints
word=stake
word=headquarters
word=Another
word=Bankers
word=stress-related
word=role
word=processing
word=community
word=funds
word=Their
word=84
word=gross
word=80
word=owner
word=surprise
word=shelters
word=FDA
word=88
word=Rorer
word=our
word=regular
word=career
word=debts
word=Dec.
word=70
word=71
word=materials
word=72
word=Food
word=abortion
word=blue
word=days
word=opinion
word=street
word=machine
word=Ms.
word=Popular
word=same
word=77
word=transactions
word=gold
word=Illinois
word=consumer
word=variety
word=factory
word=fiscal
word=factors
word=69
word=64
word=65
word=66
word=Dean
word=Harold
word=150
word=notification
word=station
word=enforcers
word=area
word=Anderson
word=50
word=key
word=51
word=Martin
word=Fleischmann
word=56
word=57
word=59
word=president
word=fastest-growing
word=54
word=number
word=output
word=interview
word=list
word=140
word=40
word=passive
word=45
word=48
word=chips
word=42
word=43
word=44
word=metric
word=seats
word=room
word=expenses
word=Birnbaum
word=silver
word=staff
word=individual
word=35
word=36
word=proposal
word=37
word=employment
word=30
word=31
word=33
word=Wyss
word=carrier
word=Management
word=guideline
word=38
word=39
word=peak
word=type
word=branches
word=102
word=Kean
word=permission
word=productivity
word=Charles
word=chairman
word=Corp.
word=Frederick
word=expectations
word=C.
word=margin
word=consultants
word=A.
word=video
word=consecutive
word=amounts
word=goal
word=wife
word=100
word=B.
word=These
word=AG
word=child
word=experiments
word=junk-bond
word=Warshaw
word=state
word=hepatitis
word=real-estate
word=January
word=Rep.
word=congressional
word=workers
word=Richard
word=Miami
word=overhead
word=software
word=Warner
word=Savings
word=flag
word=profit
word=portfolio
word=provisions
word=date
word=Noriega
word=Section
word=contrast
word=activity
word=drugs
word=option
word=fur
word=investigation
word=mortgage
word=anxiety
word=7\/8
word=General
word=Packwood
word=drug
word=gains
word=core
word=King
word=data
word=sense
word=Hunt
word=advantage
word=1.5
word=Board
word=Atlantic
word=1.6
word=1.3
word=Gillette
word=Paramount
word=1.8
word=week
word=oil
word=Stocks
word=coup
word=night
word=computing
word=maintenance
word=Figure
word=Cortese
word=Volume
word=formal
word=internal
word=Group
word=radio
word=Aug.
word=dentists
word=entry
word=Francisco
word=power
word=bank
word=Machines
word=wells
word=Andersson
word=ability
word=Nikkei
word=Noxell
word=producers
word=Brierley
word=PaineWebber
word=House
word=Kong
word=Order
word=magazine
word=gasoline
word=scam
word=cuts
word=flexibility
word=office
word=Dodd
word=reserves
word=everyone
word=federal
word=Tharp
word=merger
word=terms
word=Agency
word=rival
word=beneficiaries
word=committees
word=Silver
word=Batchelder
word=Air
word=ruling
word=franchise
word=retirement
word=fact
word=P&G
word=Virginia
word=subsidiary
word=manufacturing
word=6.4
word=five
word=6.5
word=savings
word=step
word=holdings
word=Its
word=Service
word=audience
word=policies
word=dream
word=insurer
word=loans
word=monetary
word=Last
word=dinner
word=legislation
word=parents
word=profits
word=parent
word=Time
word=Webster\/Eagle
word=equity
word=Fund
word=story
word=Honecker
word=expert
word=word
word=quake
word=de
word=battle
word=February
word=properties
word=history
word=outlets
word=image
word=Westmoreland
word=Union
word=base
word=enhancements
word=store
word=exclusive
word=Sculley
word=network
word=exchanges
word=5\/8
word=storm
word=sudden
word=Manuel
word=rules
word=Insurance
word=Minpeco
word=panel
word=mergers
word=feedlots
word=Democratic
word=farmers
word=education
word=analysts
word=Citicorp
word=facts
word=Purnick
word=systems
word=depression
word=Committee
word=car
word=Webster
word=deviation
word=chance
word=Carrion
word=acquisition
word=tape
word=Panamanian
word=goods
word=minutes
word=involvement
word=differences
word=restaurant
word=Trustcorp
word=Stone
word=task
word=Puerto
word=correction
word=stance
word=film
word=weekend
word=portion
word=Camden
word=signs
word=partner
word=Pacific
word=Gov.
word=speculation
word=cards
word=Ross
word=quarter
word=1\/2
word=System
word=1\/4
word=labor-management
word=1\/8
word=ounce
word=SEC
word=Ngoc
word=experts
word=York-based
word=Mass.
word=Issues
word=regulators
word=main
word=fees
word=regulatory
word=Boren
word=feet
word=October
word=pro-choice
word=Capital
word=Campeau
word=agencies
word=detectors
word=additional
word=plant
word=political
word=100,000
word=consideration
word=peace
word=charities
word=me
word=Nguyen
word=beta
word=Lufkin
word=Honduras
word=second
word=spokesman
word=Inc
word=suggestions
word=survey
word=property
word=quarters
word=Bush
word=West
word=NWA
word=Prudential
word=officer
word=session
word=moment
word=Wall
word=hour
word=Communications
word=standards
word=institution
word=automotive
word=OTC
word=junk
word=palladium
word=clients
word=chip
word=dividend
word=makers
word=deregulation
word=MGM\/UA
word=units
word=cafeteria
word=mill
word=sterling
word=asset-backed
word=yen
word=directors
word=electric
word=packaging
word=editorial
word=newspaper
word=surge
word=four-year
word=Sala
word=expense
word=lot
word=Dealers
word=pilot
word=stock-market
word=award
word=her
word=Your
word=arrangement
word=mink
word=particular
word=mine
word=benefits
word=Corporate
word=attempt
word=term
word=dozen
word=hours
word=Smalling
word=treatment
word=Candlestick
word=municipal
word=bidding
word=Sales
word=defense
word=house
word=W.
word=abuse
word=Nghe
word=Westwood
word=wrongdoing
word=Rosen
word=students
word=riders
word=element
word=Courter
word=Health
word=December
word=slowdown
word=Proceeds
word=executives
word=bankruptcy
word=Area
word=personnel
word=Ty
word=Technology
word=long-distance
word=someone
word=Reagan
word=loan
word=North
word=volatility
word=giant
word=criteria
word=TV
word=Atlanta
word=T.
word=baseball
word=names
word=writers
word=jury
word=Frank
word=sector
word=problems
word=course
word=home
word=communications
word=union
word=225
word=construction
word=1989
word=Life
word=1988
word=1987
word=1986
word=1985
word=lobbyist
word=1984
word=1983
word=1980
word=franchisee
word=anybody
word=Calif.
word=products
word=class
word=Limited
word=skiers
word=bids
word=laws
word=ad
word=everything
word=Peterson
word=items
word=1992
word=1990
word=shortages
word=promotions
word=types
word=evidence
word=potential
word=facilities
word=information
word=priority
word=Fla.
word=premium
word=aluminum
word=Rock
word=ways
word=obvious
word=furs
word=stations
word=minor
word=Sandinistas
word=salesman
word=product
word=2.4
word=Costa
word=2.5
word=salesmen
word=German
word=2.2
word=initial
word=2.1
word=BNL
word=River
word=Council
word=Standard
word=Net
word=2.7
word=Abramson
word=afternoon
word=stadium
word=balance
word=Research
word=top
word=Data
word=Corp
word=ton
word=Drug
word=affiliate
word=opportunity
word=women
word=groups
word=ounces
word=Justice
word=domestic
word=principal
word=part
word=nation
word=Manufacturers
word=joint
word=Yesterday
word=adviser
word=so-called
word=Asset
word=bill
word=person
word=Senate
word=Thomas
word=certificates
word=Jones
word=law
word=Marlowe
word=South
word=Street
word=200
word=maker
word=copper
word=psychology
word=decades
word=democratic
word=district
word=retailing
word=such
word=filing
word=trades
word=extremely
word=Chancellor
word=acts
word=necessary
word=possible
word=guarantees
word=orders
word=listed
word=name
word=guaranteed
word=Bank
word=substantial
word=White
word=canceled
word=vice
word=really
word=traded
word=call
word=billion
word=charges
word=rise
word=national
word=closing
word=comfortable
word=troubled
word=somewhat
word=view
word=shot
word=selected
word=shop
word=position
word=National
word=investment
word=show
word=audit
word=leading
word=race
word=news
word=older
word=risk
word=deciding
word=weekly
word=crucial
word=increasingly
word=U.K.
word=claims
word=foreign
word=trust
word=larger
word=healthy
word=police
word=study
word=making
word=low
word=force
word=real
word=selling
word=wrong
word=closely
word=dramatic
word=slow
word=shipping
word=supplies
word=thinking
word=release
word=hit
word=backing
word=least
word=renewed
word=-LRB-
word=publicly
word=year
word=great
word=fare
word=investing
word=protected
word=lucky
word=lower
word=testing
word=works
word=near
word=poor
word=while
word=favor
word=daily
word=paying
word=rumored
word=better
word=results
word=fast
word=estimate
pos=''
word=rescue
word=voting
pos=(
word=reduced
word=offering
word=limited
word=large
word=need
word=close
word=up
word=license
pos=:
word=tax-free
pos=.
pos=,
pos=)
word=post
word=changing
word=ride
word=to
word=level
word=competing
word=reporting
word=report
word=fighting
word=rich
word=so
word=values
word=due
word=recently
word=valued
word=auction
word=worry
word=runs
word=holding
word=limit
word=worth
word=promise
word=work
word=continued
word=fall
word=shift
word=increasing
word=offers
word=eager
word=use
word=man
word=widely
word=wider
word=advisers
word=published
word=registered
word=military
word=between
word=decline
word=smaller
word=comment
word=merely
word=borrowed
word=targets
word=talks
word=expanded
word=subject
word=health
word=end
word=tight
word=then
word=Treasury
word=coming
word=relatively
word=air
word=building
word=once
word=trade
word=states
word=''
word=trading
word=official
word=certain
word=spent
word=announced
word=travel
word=act
word=thin
word=offered
word=common
word=drop
word=modest
word=answer
word=lift
word=black
word=confident
word=Baker
word=partly
word=its
word=wide
word=else
word=very
word=conservative
word=general
word=right
word=short-term
word=`
word=significant
word=shares
word=present
word=collapse
word=Stick
word=6
word=3
word=4
word=:
word=rally
word=growing
word=?
word=The
word=different
word=temporarily
word=overnight
word=!
word=%
word=&
word=outstanding
word=.
word=,
word=1
word=2
word=School
word=competition
word=caution
word=turnover
word=dubbed
word=active
word=sign
word=plus
word=strike
word=increases
word=demand
word=increased
word=--
word=than
word=support
word=high
word=heat
word=advance
word=decrease
word=recommended
word=starting
word=head
word=yield
word=Still
word=declines
word=other
word=rebound
word=reported
word=now
word=not
word=volatile
word=way
word=often
word=percentage
word=tried
word=far
word=risky
word=adjusted
word=notes
word=deal
word=moves
pos=VBG
pos=VBN
word=meeting
word=planned
word=generally
word=local
word=planner
word=going
word=run
word=form
word=debt
word=upward
word=leveraged
word=newly
word=seasonally
word=competitive
word=credits
word=promising
word=over
word=rate
word=calls
word=cash
word=case
word=raising
word=play
word=needed
word=regional
word=senior
word=media
word=when
word=exercise
word=and
word=care
word=blame
word=suit
word=plan
word=critical
word=playing
word=-RRB-
word=court
word=accounts
word=managing
word=both
word=gain
word=consulting
word=important
word=quoted
word=failed
word=advanced
word=signal
word=pressing
word=similar
word=secret
word=uses
word=advice
word=tough
word=used
word=customers
word=kind
word=commissioned
word=public
word=turns
word=measures
word=largely
word=added
word=First
word=perhaps
word=purchase
word=perceived
word=ratio
word=new
word=net
word=share
word=mining
word=move
word=sharp
word=reports
word=big
word=bid
word=world-wide
word=ski
word=bit
word=shows
word=twice
word=J.
word=operations
word=graphics
word=cutting
word=-LCB-
word=simple
word=simply
word=sharply
word=abroad
word=cause
word=figure
word=alleged
word=established
word=odd
word=estimated
word=point
word=eligible
word=slowing
word=based
word=fund
word=This
word=estimates
word=bet
word=extra
word=boost
word=complete
word=set
word=full
word=above
word=available
word=ends
word=inside
word=despite
word=small
word=working
word=further
word=cover
word=fairly
word=time
word=vote
word=account
word=neither
word=process
word=previously
word=negative
word=income
word=flow
word=Japan
word=bad
word=structure
word=even
word=saw
word=either
word=created
word=On
word=unusual
word=No
word=saying
word=young
word=That
word=hardly
word=improved
word=exports
word=less
word=especially
word=features
word=serious
word=points
word=quick
word=indicated
pos=TO
word=weather
word=technology
word=land
word=first
word=novel
word=service
word=chemists
word=throughout
word=pressure
word=half
word=saving
word=particularly
word=revenue
word=much
word=hopes
word=steps
word=promises
word=expensive
word=hand
word=finding
word=proposed
word=waste
word=independent
word=longer
word=Third
word=called
word=turn
word=owned
word=sets
word=clear
word=known
word=factor
word=under
word=but
word=buy
word=good
pos=JJS
word=return
word=attempts
word=wish
word=million
word=lack
word=houses
word=pitch
word=well
word=live
word=hard
word=marks
word=held
word=overseas
word=hits
word=Next
word=help
word=timing
word=elected
word=target
word=record
word=flat
word=specified
word=mostly
word=short
word=benefit
word=familiar
word=Americans
word=roughly
pos=``
word=interest
word=weak
word=There
word=sum
word=enhanced
word=lead
word=start
word=sell
word=old
word=More
word=former
word=reading
word=comparable
word=Most
word=Both
word=stress
word=like
word=amount
word=focus
word=spread
word=enough
word=Lawson
word=only
word=natural
word=off
word=issues
word=note
word=here
word=wind
word=line
word=press
word=left
word=essentially
word=operating
word=size
word=sweetened
word=stand
word=cost
word=successful
word=publishing
word=issued
word=cheap
word=following
word=provision
word=highly
word=completed
word=control
word=easing
word=spending
word=place
word=direct
word=open
word=firm
word=marketing
word=unfair
word=index
word=if
word=range
word=corner
word=in
word=Society
word=long
word=chains
word=remaining
word=issue
word=stay
word=claim
word=strategic
word=free
word=face
word=scams
word=bullish
word=go
word=Stock
word=6.9
word=strong
word=insured
word=significantly
word=fight
word=skiing
word=charge
word=look
word=Act
word=rule
word=convicted
word=increase
word=losing
word=places
word=slightly
word=sound
word=riskier
word=scheduled
word=higher
word=mark
word=guarantee
word=heavily
word=governor
word=revised
word=hope
word=fear
word=given
word=views
word=question
word=made
word=project
word=waiting
word=Even
word=combined
word=equal
word=measure
word=profitable
word=doubt
word=admits
word=slight
word=of
word=or
word=around
word=damaged
word=average
word=Cancer
word=related
word=no
word=own
word=greater
word=offer
word=change
word=plans
word=true
word=pretty
word=collapsed
word=advertising
word=sort
word=effective
word=commercial
word=single
word=difficult
word=plunge
word=climb
word=planning
word=offices
word=chosen
word=best
word=finance
word=tax
word=times
word=Avenue
word=jump
word=reform
word=virtually
word=temporary
word=likely
word=past
word=watched
word=woman
word=yet
word=soft
word=Index
word=expected
word=resorts
word=popular
word=mind
word=costs
word=rising
word=forward
word=little
word=Institute
word=buying
word=hold
word=producing
word=continuing
word=test
word=monthly
word=talk
word=down
word=thought
word=...
word=Not
word=James
word=courts
word=substantially
word=suits
word=order
word=sponsor
word=back
word=at
word=access
word=drive
word=financing
word=burst
word=economic
word=beginning
pos=PDT
word=required
word=cut
word=repeated
word=``
word=living
word=elsewhere
word=bear
word=forecasts
word=door
pos=FW
word=-RCB-
word=New
word=All
word=result
word=mean
word=declining
word=Only
word=matched
word=too
word=usual
word=overall
word=influence
word=York
word=possibility
word=exchange
word=raise
word=ease
word=controls
word=easy
word=stronger
word=cautious
word=through
word=quite
word=park
word=valuable
pos=CC
word=what
word=next
word=President
pos=PRP
word=how
word=almost
word=British
pos=POS
pos=$
word=bonds
word=figures
word=stop
word='s
word=money
word=this
word=University
word=a
word=15
word=10
word=11
word=$
word='
word=that
word=today
pos=VBP
pos=VBD
pos=VBZ
word=any
word=most
word=several
word=more
pos=RBR
pos=RBS
word=all
pos=WP
word=last
word=late
word=earlier
pos=NNP
pos=NNS
pos=RB
word=markets
word=about
word=there
pos=VB
word=each
pos=WDT
word=market
pos=JJR
word=one
word=nearly
pos=WRB
word=double
word=the
word=early
pos=PRP$
pos=JJ
word=bigger
word=stock
pos=IN
pos=NN
word=just
word=as
pos=EX
pos=DT
pos=CD
word=individuals
word=Thursday
word=yesterday
word=Airlines
word=Sept.
word=Sir
word=dealers
word=Sony
word=another
word=Canadian
word=you
word=Wednesday
word=holders
word=his
word=billions
word=Jon
word=we
word=questions
word=Columbia
word=tomorrow
word=those
word=traders
word=they
word=Monday
word=employees
word=Trelleborg
word=Jan.
word=20
word=whose
word=four
word=5
word=I
word=committee
pos=NNPS
word=Messrs.
word=anyone
word=stocks
word=itself
word=AT&T
word=whom
word=banks
word=Seidman
word=people
word=himself
word=permanent
word=Oct.
word=USX
word=earnings
word=six
word=Chemical
word=minimum
word=admission
word=Western
word=movies
word=brokerage
word=she
word=Congress
word=financial
word=these
word=every
word=investors
word=three
word=who
word=SciMed
word=Mr.
word=98
word=computers
word=75
word=60
word=Picop
word=securities
word=55
word=Saturday
word=lawyer
word=themselves
pos=WP$
word=it
word=something
word=he
word=Vietnam
word=many
word=Veronis
word=sales
word=Friday
word=which
word=maximum
word=prices
word=Berkeley
word=long-term
word=my
word=Nov.
word=brokers
word=fraud
word=We
word=some
word=an
word=commissions
word=returns
word=two
word=Sen.
word=Tuesday
word=toward
word=Looking
word=permit
word=bought
word=gained
word=below
word=introduced
word=might
word=translated
word=came
word=watching
word=converted
word=did
word=where
word=takes
word=protect
word=oust
word=taken
word=running
word=against
word=charged
word=because
word=predict
word=forced
word=guilty
word=qualify
word=interested
word=For
word=privatized
word=grew
word=Perhaps
word=became
word=produced
word=stepped
word=included
word=told
word=slid
word=pushing
word=includes
word=causing
word=acquiring
word=indicating
word=Maybe
word=doing
word=happened
word=caught
word=considered
word=taking
word=looks
word=While
word=attributed
word=contends
word=flying
word=attracted
word=pursue
word=poorly
word=learn
word=took
word=read
word=raised
word=stuck
word=struck
word=plunged
word=reflects
word=learned
word=gotten
word=claiming
word=Why
word=ended
word=changed
word=admitted
word=aggressively
word=having
word=reduce
word=followed
word=needs
word=released
word=intended
word=preparing
word=climbed
word=along
word=alone
word=sells
word=wo
word=associated
word=together
word=sometimes
word=predicted
word=But
word=obtain
word=Take
word=thinks
word=actually
word=received
word=citing
word=knocking
word=voted
word=decided
word=covering
word=giving
word=represents
word=however
word=lose
word=met
word=using
word=covered
word=fail
word=insists
word=lost
word=shortly
word=generate
word=continues
word=privately
word=represented
word=reflect
word=worked
word=trying
word=maybe
word=figured
word=may
word=from
word=before
word=encouraged
word=invested
word=asked
word=recorded
word=seems
word=vary
word=ago
word=deliver
word=exclude
word=denied
word=within
word=appears
word='d
word='m
word=seen
word=approved
word=seem
word=reached
word=seek
word=know
word=Until
word=tumbled
word=presented
word=spend
word=rejected
word=quickly
word=involving
word=predicting
word=expressed
word=caused
word=reaches
word=passed
word=fully
word=After
word=consider
word=hire
word=come
word=According
word=tougher
word=add
word=lies
word=suspended
word=showed
word=via
word=happen
word=remain
word=representing
word=keeping
word=;
word=managed
word=assume
word=sending
word=knew
word=triggered
word=ran
word=-
word=adding
word=surged
word=asking
word=provides
word=committed
word=lowered
word=Despite
word=expects
word=sought
word=still
word=attract
word=suggested
word=provided
word=hear
word=usually
word=continue
word=including
word=helping
word=declined
word=until
word=across
word=leave
word=controlled
word=sure
word=hurt
word=grow
word=was
word=totaled
word=becoming
word=noted
word=immediately
word=receive
word=annually
word=reflecting
word=offset
word=moved
word=ask
word=cited
word=comes
word=appear
word=unless
word=though
word=during
word=announce
word=Yet
word=gave
word=borrow
word=posting
word=approve
word=retain
word=kept
word=involved
word=wants
word=follows
word=disclosed
word=getting
word=give
word=outside
word=moving
word=keep
word=indeed
word=jumped
word=retire
word=compared
word=also
word=being
word=compares
word=described
word=From
word=Meanwhile
word=require
word=reacted
word=measured
word=reckons
word=adds
word=earmarked
word=prevent
word=except
word=reflected
word=Among
word=could
word=Instead
word=gets
word=refuse
word=hiring
word=improve
word=although
word=Then
word=If
word=acknowledges
word=In
word=suggests
word=sit
word=handle
word=want
word=carrying
word=does
word=include
word=Since
word=pushed
word=narrowly
word=purchased
word=discuss
word=recommend
word=believes
word=indicate
word=restore
word=fly
word=Once
word=paid
word=provide
word=see
word=During
word=directly
word=However
word=away
word=seeking
word=invest
word=By
word=for
word=Under
word=As
word=launched
word=At
word=pulled
word=won
word=soared
word=watch
word=means
word=think
word=replace
word=squeezed
word=hampered
word=allow
pos=RP
word=telling
word=noting
word=applied
word=contribute
word=win
word=went
word=gathered
word=ever
word=say
word=accused
word=were
word=Of
word=Or
word=establish
word=wait
word=Within
word=save
word=always
word=rose
word=again
word=without
word=have
word=How
word=harder
word=stopped
word=helped
word=upon
word=optimistic
word=owns
word=among
word=posted
word=Indeed
word=indicates
word=agreed
word=impressed
word=Separately
word=Although
word=appeared
pos=UH
word=Rather
word=why
word=must
word=conducted
word=says
word=contributed
word=since
word=unchanged
word=submit
word=hoped
word=thus
word=declared
word=shipped
word=pick
word=providing
word=built
word=Nevertheless
word=out
word=build
word=believe
word=suggest
word=promised
word=threatened
word=probably
word=rather
word=knows
word=with
word=ahead
word=conceded
word=typically
word=stayed
word=gone
word=carried
word=serve
word=primarily
word=officially
word=after
word=instead
word=wanted
word=Over
word=sitting
word=holds
word=operates
word=whether
word=puts
word=boosted
word=push
word=clearly
word=achieved
word=normally
word=occur
word=maintained
word=send
word=When
word=started
word=settled
word=goes
word=Moreover
word=sent
word=opened
word=safe
word=currently
word=according
word=Also
word=considering
word=succeed
word=said
word=earned
word=linked
word=will
word=experienced
word=prompted
word=falls
word=prepared
word=brought
word=is
word=Because
word=operate
word=felt
word=entered
word=expand
word=fell
word='ve
word=easily
word=per
word=existed
word=dropped
word=reach
word=into
word=should
word=participate
word=got
word=began
word=delayed
word=initially
word=looking
word=placed
word=unveiled
word=do
word='re
word=by
word=pay
word=ca
word=behind
word=soon
word=found
pos=SYM
word=gives
word='ll
word=becomes
word=file
word=acquired
word=fill
word=allows
word=putting
word=priced
word=able
word=on
word=match
word=covers
word=find
word=affect
word=become
word=disclose
word=seemed
word=never
word=get
word=apparently
word=feel
word=concluded
word=make
word=grown
word=can
word=Says
word=Before
word=turned
word=meet
word=expect
word=Here
word=put
word=entirely
word=pass
word=beyond
word=been
word=begun
word=leaving
word=discussing
word=filed
word=revive
word=otherwise
word=take
word=remains
word=already
word=acquire
word=ensure
word=determined
word=frequently
word=designed
word=had
word=would
word=developed
word=To
pos=MD
word=Though
word=Now
word=So
word=defined
word=has
word=sold
word=meaning
word=filled
word=With
word=Nor
word=recalls
word=named
word=be
word=boosting
word=remained
word=closed
word=led
word=carry
word=develop
word=transfer
word=avoid
word=bring
word=done
word=ending
word=allowed
word=n't
word=let
word=produce
word=stealing
word=impossible
word=tell
word=beat
word=accept
word=rallied
word=begin
word=maintain
word=Like
word=played
word=And
word=backed
word=try
word=earn
word=makes
word=create
word=showing
word=later
word=are
0.9122855575412991
0.9122855575412837
2.4217550122781497
1.1025657728406488
1.5254286784253166
1.4273041621679463
0.9122855575412986
1.102565772840652
0.9122855575412893
0.9202830490559535
0.9632071683841527
0.9122855575412869
0.9538807855298358
0.9122855575412986
1.1025657728406564
0.953880785529832
0.9246639488254411
1.1025657728406593
0.9538807855298267
0.9122855575412896
0.9122855575413076
0.9538807855298282
0.9538807855298279
1.10256577284065
1.1025657728406497
0.9538807855298221
1.1025657728406477
0.9122855575412877
0.9122855575412896
0.9122855575412849
1.1025657728406477
1.1025657728406488
2.4217550122781497
0.9122855575412896
1.10256577284065
1.1025657728406593
1.1025657728406497
1.1025657728406464
0.9122855575412896
1.1025657728406442
0.9538807855298312
1.1025657728406477
0.9122855575412896
0.9122855575412879
0.9538807855298302
1.1025657728406433
1.1025657728406446
0.9538807855298282
1.8680223494308095
1.1025657728406477
0.9122855575412919
0.9538807855298217
0.9122855575412896
1.102565772840652
0.9122855575412896
1.1025657728406477
1.102565772840644
0.9122855575412896
2.4217550122781497
1.1025657728406497
0.9538807855298267
1.10256577284066
1.1025657728406497
2.421755012278147
0.9538807855298389
0.9538807855298267
0.9538807855298279
1.1025657728406497
0.9538807855298268
0.9538807855298267
1.1025657728406446
1.10256577284065
0.9122855575412896
1.1025657728406497
0.9122855575412896
2.421755012278156
0.9122855575412893
1.10256577284066
0.9538807855298347
0.9538807855298244
0.9122855575412896
1.1025657728406488
0.9538807855298282
0.9122855575412921
1.10256577284065
0.9122855575412879
1.1025657728406477
0.9122855575412919
0.9538807855298267
2.0567990623900374
2.4217550122781444
0.9122855575412879
4.675843228210113
0.9122855575412893
0.9122855575412896
1.1520734349647976
0.9122855575412967
0.9122855575412896
1.261149523253793
1.1025657728406497
0.9246639488254407
0.9122855575412877
0.9538807855298267
1.1025657728406497
2.316082841446399
1.10256577284065
0.9122855575412896
0.9538807855298217
1.1025657728406497
2.4217550122781453
0.9538807855298282
0.9122855575412896
0.924663948825454
0.9122855575412913
0.9122855575412877
3.4228689420131717
0.9122855575412837
0.9246639488254411
0.9122855575412879
0.9538807855298358
0.9538807855298221
1.1025657728406477
1.1025657728406497
1.102565772840649
2.3160828414463945
1.1025657728406446
0.9538807855298221
0.9538807855298309
1.1025657728406446
0.9538807855298282
1.1025657728406497
0.9122855575412896
0.9538807855298267
1.10256577284066
1.1025657728406488
1.1025657728406488
0.9122855575412943
0.9122855575412896
2.385137798188693
0.9419192483054333
1.10256577284065
1.1025657728406497
0.9538807855298282
2.4217550122781497
0.9122855575412877
1.1025657728406477
1.10256577284066
1.1025657728406593
0.9538807855298282
1.868022349430816
1.1025657728406513
1.1025657728406433
2.3619538166681084
0.9538807855298282
0.9122855575412818
3.9063323933136136
0.9122855575412986
1.0805956261973906
1.1025657728406497
0.9122855575412893
0.9538807855298282
2.3160828414464025
0.9122855575412877
1.337061325063269
1.1025657728406477
1.1025657728406582
1.1025657728406477
0.9122855575412986
0.9122855575412877
1.1025657728406497
0.9122855575412847
1.1025657728406497
0.9122855575412935
2.421755012278156
0.9122855575412877
0.9538807855298389
0.9122855575412896
0.9538807855298426
0.9122855575412935
0.9538807855298261
1.1025657728406542
1.10256577284065
2.4217550122781457
0.953880785529832
0.9538807855298221
0.9122855575412919
2.0407501319474246
0.9122855575412879
0.9538807855298267
1.1025657728406615
1.3193967528481545
2.4217550122781497
0.9122855575412968
3.0153264665001047
0.9122855575412896
0.9538807855298282
0.9538807855298282
0.9538807855298267
1.102565772840652
1.10256577284065
2.421755012278149
1.1025657728406477
1.5347086528482237
1.1025657728406564
1.1025657728406477
0.9538807855298268
0.9538807855298412
0.9538807855298217
0.9122855575412896
2.421755012278147
1.1025657728406513
1.1025657728406497
0.9122855575412919
0.9122855575412818
0.9538807855298246
0.9122855575412991
1.1025657728406497
0.9538807855298221
1.1025657728406593
0.9122855575412877
0.9532195497104501
1.0305651609511974
2.4217550122781497
0.9122855575412837
1.1025657728406442
0.9122855575412837
0.9122855575412852
1.102565772840652
1.10256577284065
0.9538807855298282
0.9538807855298282
2.421755012278149
0.9538807855298279
1.1025657728406488
1.1025657728406497
2.4217550122781497
0.9122855575412896
1.1025657728406477
1.1025657728406497
1.1025657728406446
1.1025657728406488
0.6891395766831226
2.6516524540295423
1.1025657728406433
0.9246639488254447
0.9122855575412935
0.9538807855298412
2.2782025639560755
0.9122855575412877
1.1025657728406477
0.9122855575412877
0.9122855575412921
1.1025657728406497
2.4217550122781497
0.9122855575412896
1.8680223494308084
1.1025657728406593
0.9246639488254423
0.9538807855298282
0.9538807855298347
1.3565690482909822
0.9538807855298268
0.9122855575412869
0.9538807855298221
0.9538807855298282
0.9122855575412847
1.1025657728406593
1.8634463168985809
0.9538807855298217
0.9122855575412837
2.4217550122781497
1.1025657728406477
0.9538807855298279
1.1025657728406497
1.1025657728406497
0.9122855575412893
0.9122855575412847
1.1025657728406477
1.102565772840652
0.9538807855298282
0.9122855575412879
1.10256577284065
0.9122855575412896
0.9538807855298282
1.1025657728406446
1.1025657728406477
2.3135001821447396
0.9538807855298221
1.1025657728406497
1.1025657728406593
1.1025657728406497
1.102565772840644
0.9538807855298282
0.9122855575412869
2.421755012278147
0.9538807855298302
0.9538807855298282
0.9122855575412919
0.9538807855298279
0.9122855575412879
1.10256577284065
0.9538807855298358
2.421755012278147
0.9538807855298282
1.1025657728406477
0.9538807855298282
2.313500182144735
0.9538807855298267
0.9538807855298267
0.9632071683841527
1.102565772840644
0.9122855575412879
1.822653081155995
0.9122855575412935
0.9246639488254489
0.9538807855298302
2.421755012278149
1.1025657728406497
2.421755012278149
0.9538807855298309
0.9538807855298305
1.1025657728406446
0.9122855575412896
0.9122855575412877
0.9122855575412877
1.1025657728406477
1.1025657728406477
1.671375557709916
0.9122855575412935
2.4217550122781497
2.4217550122781497
0.9538807855298279
0.9122855575412893
2.4217550122781497
0.9538807855298412
1.1025657728406564
0.9246639488254407
0.9538807855298267
0.9538807855298389
0.9122855575412896
0.9538807855298267
1.9538816228889022
1.10256577284065
1.10256577284066
1.1025657728406477
1.10256577284065
1.1025657728406593
2.4217550122781533
0.9538807855298279
1.1025657728406564
1.102565772840643
4.404560017309347
0.9122855575412896
0.9207383549737683
2.313500182144735
0.9122855575412837
0.9538807855298282
1.1025657728406477
0.9538807855298282
0.9122855575412935
2.4217550122781497
0.9122855575412877
0.9122855575412913
0.9122855575412893
0.9122855575412968
1.10256577284065
0.9122855575412896
0.9122855575412896
0.953880785529832
0.9122855575412896
3.906332393313624
0.9122855575412896
0.9122855575412879
0.9122855575412896
0.9122855575412893
0.9122855575412877
1.1025657728406497
1.1025657728406433
1.10256577284065
0.9538807855298267
0.9122855575412896
0.9538807855298221
1.10256577284066
0.9122855575412896
1.10256577284065
2.4217550122781497
1.1025657728406477
1.1025657728406442
0.9246639488254407
1.10256577284065
0.9246639488254521
0.9246639488254424
1.1025657728406477
1.1025657728406497
1.1025657728406575
2.1983293561792436
0.9538807855298282
1.1025657728406488
1.8680223494308035
0.924663948825445
1.1025657728406477
1.1025657728406477
0.9122855575412896
1.1025657728406446
2.4217550122781497
0.9538807855298282
0.9246639488254479
2.4217550122781457
0.9122855575412896
2.3568135142964506
0.9246639488254479
0.9122855575412939
0.9122855575412896
2.22563345418403
1.1025657728406497
2.013223201150943
1.1025657728406593
0.9122855575412919
0.9122855575412986
0.9246639488254407
1.102565772840651
1.1025657728406446
0.9538807855298279
0.9122855575412896
0.9122855575412896
0.9122855575412991
1.1025657728406593
0.9538807855298279
0.9538807855298412
0.9246639488254411
0.9122855575412986
0.912285557541286
2.4217550122781497
0.9122855575412896
0.9538807855298267
0.912285557541282
2.4217550122781497
2.4217550122781444
1.1025657728406446
0.9122855575412893
1.1025657728406442
0.9538807855298279
0.9122855575412879
2.0132232011509448
1.1025657728406537
1.1025657728406497
0.9122855575412896
1.1025657728406564
0.9538807855298282
2.421755012278157
0.9122855575412818
0.9122855575412877
0.9538807855298412
1.1025657728406488
1.1025657728406513
1.1025657728406488
1.1025657728406433
0.9538807855298302
1.1025657728406477
1.1025657728406488
1.4641064252497566
0.9122855575412939
0.9122855575412879
0.9122855575412896
1.1025657728406488
2.4217550122781497
0.9538807855298221
0.9122855575412896
1.1025657728406446
0.9122855575412893
0.9122855575412968
0.9538807855298389
1.1025657728406555
2.2135206807869157
2.421755012278154
1.1025657728406477
2.4217550122781497
1.1025657728406457
3.5795856652241786
0.9538807855298282
0.9122855575412877
0.9122855575412919
2.421755012278149
0.9122855575412893
0.9122855575412986
1.8680223494308137
1.4990236305599514
0.9246639488254411
0.9538807855298358
0.924663948825454
0.9246639488254353
1.1025657728406497
0.9246639488254423
0.9246639488254356
0.9246639488254411
1.10256577284066
2.421755012278147
2.2585899922249366
2.4217550122781497
0.9246639488254423
0.9246639488254521
0.9246639488254521
1.1025657728406477
0.9122855575412837
0.9122855575412879
1.1025657728406575
0.9538807855298375
0.9122855575412896
0.9122855575412837
1.1025657728406433
1.1025657728406446
0.9246639488254451
0.924663948825445
1.1025657728406488
0.9246639488254521
1.1025657728406497
0.9246639488254366
0.9246639488254366
0.924663948825451
0.9246639488254461
2.4217550122781497
0.9246639488254378
0.924663948825451
1.1025657728406433
0.9246639488254533
0.9122855575412968
0.9122855575412893
0.9538807855298389
2.307008592977217
1.1025657728406593
0.9122855575412869
2.2876005175005325
1.1025657728406564
0.9122855575412935
2.3282665130312292
2.4217550122781497
1.10256577284066
2.6516524540295423
0.9122855575412896
1.1025657728406477
1.1025657728406546
0.9122855575412986
1.1025657728406497
0.9122855575412877
0.9122855575412877
1.1025657728406497
0.9122855575412919
2.4217550122781497
0.9122855575412849
0.9122855575412877
1.1025657728406497
2.4217550122781497
0.9538807855298282
0.9122855575412893
1.1025657728406537
1.1025657728406477
1.1025657728406488
1.1025657728406477
1.1025657728406593
2.4217550122781444
1.1025657728406593
0.9122855575412896
2.4217550122781533
1.10256577284065
0.9532195497104501
5.971014904508414
1.1025657728406557
1.1025657728406497
1.1025657728406564
0.9538807855298221
0.9538807855298267
1.1025657728406646
2.037245396039247
1.8668588825824024
0.9538807855298282
2.421755012278149
2.4217550122781444
0.9538807855298268
1.1025657728406593
1.1025657728406593
1.1025657728406446
1.1025657728406575
1.1025657728406497
2.421755012278149
0.9538807855298358
1.10256577284065
0.953880785529832
1.10256577284065
1.1025657728406555
2.3158338092361683
0.9538807855298282
0.6891395766831245
0.9122855575412896
1.1025657728406477
0.9122855575412877
0.9122855575412837
0.9122855575412891
0.9122855575412896
0.9122855575412893
0.9122855575412877
1.10256577284066
1.1025657728406477
0.9532195497104501
0.9122855575412896
1.1025657728406488
0.9122855575412877
1.1025657728406555
0.9538807855298217
1.3034001228400338
4.085480669440118
1.10256577284065
0.9538807855298246
0.9122855575412919
0.9122855575412877
1.1025657728406593
2.421755012278154
3.883864557750202
0.9538807855298279
0.9122855575412877
1.1025657728406564
0.9538807855298412
0.9122855575412893
1.1025657728406497
0.9538807855298302
0.9122855575412986
0.9122855575412896
0.9122855575412896
0.9538807855298282
1.1025657728406564
0.9122855575412914
0.9122855575412896
1.1025657728406555
0.9122855575412896
1.10256577284065
0.9538807855298261
0.9538807855298221
0.9122855575412877
2.4217550122781524
1.10256577284066
0.9538807855298358
0.9538807855298282
1.1025657728406497
1.1025657728406497
0.9538807855298309
0.9122855575412896
2.4217550122781435
0.9538807855298279
0.9538807855298282
0.9122855575412877
0.9538807855298221
0.9122855575412986
1.10256577284066
0.9538807855298268
0.9122855575412935
2.4217550122781497
1.1025657728406564
0.9122855575412879
0.9122855575412879
1.1025657728406513
2.31350018214473
1.10256577284066
2.4217550122781497
0.9122855575412896
2.4217550122781497
0.9122855575412879
0.9122855575412935
1.1025657728406497
0.9122855575412935
2.3135001821447343
0.9246639488254407
1.1025657728406477
0.9246639488254411
7.95965795270124
0.9122855575412879
0.9246639488254423
2.421755012278149
1.1025657728406446
0.9246639488254423
0.9122855575412893
0.9538807855298388
0.9538807855298268
0.9122855575412877
0.9538807855298279
0.9538807855298282
0.9122855575412896
0.9538807855298389
1.1025657728406497
1.1025657728406546
2.421755012278147
1.8226530811559996
2.3734285195733893
1.8634463168985809
2.4217550122781497
0.9538807855298279
5.317052623600831
2.037245396039247
0.9538807855298268
1.1025657728406462
1.1025657728406497
0.9538807855298279
0.9538807855298267
1.1025657728406593
2.1118917504849204
0.9538807855298279
0.9538807855298268
0.9538807855298282
2.421755012278147
2.4217550122781506
2.421755012278147
1.1025657728406477
0.9122855575412921
0.9538807855298267
1.1025657728406497
0.9538807855298268
0.9122855575412877
0.9246639488254461
0.9538807855298279
0.9122855575412896
1.1025657728406593
0.9122855575412894
1.5143274506883255
1.10256577284065
0.9122855575412896
0.9538807855298267
0.9122855575412877
1.1025657728406542
2.378909068802934
1.10256577284066
1.102565772840652
1.1025657728406497
0.9538807855298282
5.109908114553161
0.9538807855298267
0.9538807855298204
0.9538807855298282
0.953880785529832
0.9538807855298267
1.10256577284065
0.9122855575412986
1.1025657728406488
0.9122855575412877
0.9122855575412896
1.1025657728406477
0.9122855575412991
1.1025657728406477
0.9122855575412869
1.1025657728406477
0.9122855575412896
0.9122855575412893
0.9538807855298268
1.1025657728406477
4.279676645620513
3.0548476441378325
0.9122855575412896
0.9246639488254424
0.924663948825445
1.1025657728406453
0.9122855575412991
0.9122855575412879
1.1025657728406593
0.9122855575412896
1.1025657728406564
0.9122855575412879
1.1025657728406593
0.9122855575412919
0.9122855575412991
1.1025657728406537
0.9122855575412991
0.9122855575412893
0.9122855575412893
1.1025657728406564
0.9538807855298217
0.9538807855298279
0.9246639488254459
1.1025657728406477
1.1025657728406497
1.1025657728406477
0.9122855575412869
2.4217550122781497
0.9252505744351396
0.9632071683841527
1.8680223494308184
1.8680223494308104
0.9122855575412893
2.381208155956949
1.1025657728406497
0.9122855575412896
0.953880785529841
0.9538807855298358
0.9122855575412893
0.9246639488254521
1.1025657728406542
1.1025657728406477
0.9122855575412893
1.8680223494308115
0.953880785529825
2.4217550122781497
1.1025657728406477
1.1025657728406446
1.1025657728406497
0.9122855575412893
1.5928773738579458
0.9122855575412893
1.1025657728406477
1.1025657728406488
1.10256577284066
1.1025657728406433
0.9122855575412877
2.4217550122781497
1.1025657728406697
1.1025657728406564
2.4217550122781497
0.9538807855298267
0.6891395766831425
1.1025657728406446
0.9538807855298468
1.1025657728406513
0.9538807855298279
2.285172727987713
0.9122855575412837
2.4217550122781497
0.9538807855298389
0.9122855575412919
2.4217550122781533
0.9122855575412847
0.9122855575412919
0.9439146305367884
0.9122855575412896
1.1025657728406488
0.9538807855298282
0.9122855575412837
1.1025657728406433
0.9122855575412869
1.1025657728406488
1.1025657728406537
1.1025657728406446
0.953880785529832
1.102565772840652
1.1025657728406555
0.9122855575412877
0.9122855575412921
2.421755012278157
1.10256577284065
1.1025657728406564
1.1025657728406446
0.9122855575412896
0.9122855575412896
0.9538807855298282
1.1025657728406513
0.9538807855298267
1.10256577284065
1.102565772840652
2.421755012278149
1.102565772840652
0.9122855575412925
0.9122855575412986
1.1025657728406506
0.9538807855298282
1.1025657728406433
0.9538807855298282
0.9246639488254407
0.9538807855298267
0.9122855575412893
0.9122855575412919
0.9122855575412893
0.9122855575412837
2.3160828414463928
1.1025657728406515
1.1025657728406575
0.9465076586016975
5.867294312788734
2.133846777839297
0.9122855575412991
0.9122855575412896
1.1025657728406564
1.102565772840651
0.9538807855298246
0.9122855575412913
0.9122855575412877
0.9538807855298267
1.1025657728406477
0.9122855575412849
0.9122855575412877
0.9538807855298267
1.868022349430819
0.9122855575412896
7.839280982554772
0.9122855575412896
0.9122855575412893
0.9538807855298267
1.1025657728406433
0.9538807855298279
0.9122855575412879
0.912285557541282
1.1025657728406477
1.1025657728406497
1.1025657728406433
2.421755012278152
1.1025657728406477
2.4217550122781497
0.9122855575412986
1.1025657728406497
0.9122855575412896
0.9122855575412991
0.9538807855298224
0.9439146305367884
1.1025657728406477
0.9122855575412896
1.1025657728406453
0.9532195497104501
0.9538807855298221
2.4217550122781497
2.4217550122781497
0.953880785529841
0.9122855575412836
0.9122855575412877
1.1025657728406455
1.1025657728406497
0.9122855575412986
0.9122855575412877
1.1025657728406497
0.9122855575412939
0.9122855575412968
1.1025657728406497
2.3227754673273306
0.9122855575412818
1.1025657728406497
2.4217550122781466
2.013223201150952
0.9122855575412986
0.9538807855298279
1.1025657728406537
1.1025657728406433
0.9122855575412921
1.102565772840652
0.9122855575412896
1.1025657728406477
0.9122855575412896
0.9538807855298279
0.9122855575412893
1.1025657728406482
0.9538807855298282
1.1025657728406488
0.9122855575412818
1.1025657728406477
0.6891395766831226
2.4217550122781457
1.1025657728406497
0.9538807855298267
0.9122855575412896
3.5958008805808324
1.1025657728406555
1.1025657728406477
0.9122855575412896
0.9122855575412877
1.1025657728406497
0.9122855575412896
0.6891395766831212
1.1025657728406564
5.754917952552205
0.9122855575412968
1.10256577284066
0.9538807855298221
1.7680978795484774
0.9122855575412837
1.1025657728406433
1.1025657728406497
1.1025657728406497
0.9122855575412896
0.9122855575412896
1.1025657728406477
1.1025657728406433
0.9538807855298282
1.1025657728406497
1.1025657728406477
0.9122855575412991
2.6938604559886397
0.9122855575412879
0.9122855575412837
0.9122855575412935
1.10256577284065
0.9538807855298221
0.9122855575412896
1.5928773738579345
1.1025657728406497
0.9122855575412877
1.1025657728406433
1.1025657728406488
1.102565772840652
0.9538807855298282
1.1025657728406497
0.9122855575412939
1.10256577284065
2.421755012278147
1.6339000251081532
1.102565772840658
0.9538807855298267
0.9122855575412879
0.689139576683123
0.9122855575412896
2.4217550122781444
1.1025657728406497
1.1025657728406497
0.9122855575412913
1.1025657728406477
0.9246639488254423
0.9246639488254423
1.1025657728406453
0.9122855575412893
0.9122855575412893
2.421755012278149
0.9538807855298389
1.1025657728406555
1.1025657728406593
2.316082841446399
0.9207383549737683
2.421755012278149
1.102565772840652
1.1025657728406477
1.1025657728406477
1.6904531046687106
0.6891395766831183
0.9246639488254423
2.421755012278157
0.9246639488254366
1.1025657728406488
1.1025657728406497
0.9538807855298267
0.9122855575412893
0.9246639488254423
0.9122855575412837
0.6891395766831354
2.421755012278157
1.1025657728406497
0.9538807855298282
0.9122855575412877
0.9246639488254366
0.9246639488254407
0.9538807855298412
0.9246639488254423
0.9352244073324668
1.102565772840652
2.2135206807869157
0.9538807855298244
1.1025657728406497
1.1025657728406497
1.1025657728406446
0.9122855575412837
0.9122855575412837
2.421755012278149
0.9246639488254407
0.9538807855298267
1.1025657728406555
0.9122855575412991
1.1025657728406575
1.1025657728406488
1.1025657728406488
2.4217550122781435
0.9538807855298267
0.9246639488254423
0.9246639488254423
0.9246639488254356
0.9246639488254423
0.9122855575412893
0.9122855575412896
0.9246639488254424
1.1025657728406446
1.10256577284065
0.9538807855298267
1.1025657728406575
0.9122855575412877
0.9246639488254469
2.421755012278157
0.9246639488254411
0.9122855575412896
0.9122855575412877
0.9246639488254423
0.9246639488254411
0.9246639488254407
1.1025657728406615
2.4217550122781497
0.9246639488254423
1.1025657728406475
1.1025657728406593
1.10256577284065
1.1025657728406497
0.9246639488254423
0.9246639488254479
2.4217550122781497
0.9246639488254521
0.9246639488254411
0.9538807855298389
0.9246639488254407
0.9246639488254423
0.9246639488254423
2.4217550122781497
0.9538807855298282
1.1025657728406564
0.9538807855298235
0.9122855575412896
1.102565772840652
1.10256577284066
2.3507060699569697
0.924663948825454
0.9246639488254411
1.1025657728406537
0.9246639488254407
1.1025657728406477
0.9246639488254371
0.9246639488254521
0.9246639488254366
0.9122855575412896
1.1025657728406564
0.9122855575412935
1.1025657728406477
0.9246639488254407
0.9246639488254423
1.1025657728406497
1.1025657728406446
0.9538807855298282
0.9246639488254423
0.9122855575412893
1.1025657728406497
1.1025657728406477
0.9122855575412879
1.102565772840655
0.9122855575412978
0.9122855575412896
0.9538807855298221
0.9122855575412893
1.1025657728406488
0.9538807855298267
0.9122855575412986
1.1025657728406497
2.4217550122781497
0.9538807855298389
1.1025657728406477
1.1025657728406446
0.9246639488254493
0.9122855575412893
2.316082841446398
0.9122855575412896
1.1025657728406488
0.9538807855298261
1.10256577284066
0.9122855575412896
1.8604419072416645
1.10256577284065
1.1025657728406593
0.9122855575412893
0.9122855575412837
2.421755012278149
0.9538807855298375
0.9122855575412991
0.9122855575412877
2.065481903186019
1.1025657728406488
0.9122855575412967
0.9122855575412877
1.10256577284065
1.102565772840655
1.1025657728406515
0.9538807855298302
6.141608407068261
0.912285557541282
1.1025657728406497
1.1025657728406477
1.1025657728406593
0.9538807855298412
1.1025657728406488
1.10256577284066
1.1025657728406593
1.1025657728406497
1.1025657728406488
0.9246639488254405
0.9122855575412877
0.9122855575412896
1.1025657728406446
0.9538807855298221
1.1025657728406477
0.9122855575412877
0.9538807855298412
1.1025657728406433
0.9122855575412968
1.10256577284066
0.9246639488254366
0.9122855575412939
0.9122855575412879
0.9246639488254411
0.9246639488254407
0.9122855575412877
0.9122855575412913
0.9246639488254366
1.1025657728406506
1.10256577284066
0.9538807855298282
1.1025657728406513
1.1025657728406555
5.43795105946415
1.10256577284065
1.10256577284065
0.9122855575412896
1.10256577284065
2.4217550122781497
2.4217550122781497
0.9122855575412849
1.1025657728406477
0.9122855575412879
0.9538807855298282
1.1025657728406477
0.9122855575412837
1.10256577284066
2.1065458526356218
1.5928773738579345
0.9538807855298282
0.9122855575412818
1.1025657728406488
0.9122855575412986
0.9122855575412896
0.9538807855298261
0.9122855575412896
0.9122855575412896
0.9122855575412967
0.9122855575412893
0.9122855575412986
1.1025657728406446
1.1025657728406497
1.1025657728406497
0.9538807855298267
1.1025657728406497
1.10256577284066
0.9122855575412896
0.9538807855298268
1.1025657728406593
2.4217550122781457
0.9122855575412877
1.1025657728406513
0.9538807855298261
0.9122855575412896
1.9538816228889022
0.9538807855298282
0.9538807855298282
1.3826743945912496
0.9122855575412896
0.9122855575412936
1.1025657728406477
1.1025657728406593
1.1025657728406564
1.102565772840652
0.9122855575412896
0.9122855575412896
1.1025657728406433
1.1025657728406488
0.9246639488254424
0.9246639488254502
0.9246639488254411
0.9538807855298389
1.10256577284065
0.9538807855298412
0.6891395766831183
0.9122855575412913
1.1025657728406488
0.953880785529832
1.1025657728406497
1.1025657728406477
0.9538807855298364
2.421755012278156
2.170297836934143
1.1025657728406497
1.1025657728406497
0.953880785529832
0.9538807855298235
1.1025657728406555
0.9122855575412893
0.9122855575412896
1.1025657728406442
0.9122855575412893
1.1025657728406433
0.9122855575412877
1.1025657728406477
1.1025657728406477
1.1025657728406593
2.5299246716879895
1.1025657728406497
0.9122855575412896
0.9538807855298279
1.1025657728406546
0.9538807855298279
1.1025657728406497
0.9122855575412991
0.9122855575412893
1.10256577284066
0.9538807855298282
1.1025657728406477
2.421755012278147
0.9122855575412896
1.1025657728406546
0.9538807855298282
0.924663948825445
1.1025657728406497
2.4217550122781497
0.9122855575412877
0.9538807855298279
0.9282197918740328
0.9122855575412837
1.1025657728406593
0.9538807855298282
0.9538807855298282
2.3282665130312292
0.9538807855298412
1.10256577284066
0.9538807855298368
0.9122855575412919
0.9538807855298282
0.9122855575412877
0.9538807855298282
1.1025657728406477
0.9122855575412986
1.10256577284066
0.9122855575412818
1.1025657728406488
1.1025657728406446
0.9122855575412896
1.1025657728406593
1.1025657728406497
2.421755012278147
0.953880785529832
0.9538807855298302
1.10256577284065
0.9538807855298267
1.1025657728406477
0.9122855575412896
0.9122855575412837
1.10256577284066
0.9122855575412837
1.1025657728406497
1.1025657728406497
1.1025657728406488
1.10256577284066
1.10256577284065
0.9122855575412896
0.9538807855298279
1.102565772840652
0.9122855575412986
0.9122855575412896
1.10256577284065
0.9538807855298282
0.9122855575412893
1.1025657728406697
0.9246639488254479
0.9122855575412896
0.9246639488254378
2.421755012278147
0.9246639488254479
1.1025657728406497
0.9122855575412879
0.9122855575412877
0.9538807855298279
2.4217550122781497
0.9122855575412879
0.9436364627636972
0.9538807855298268
2.421755012278149
0.953880785529832
2.4217550122781444
0.9122855575412877
0.9538807855298268
0.9122855575412818
2.421755012278149
0.9122855575412991
0.9122855575412896
0.9538807855298389
0.9538807855298268
2.4217550122781435
3.3556703204234015
2.4217550122781533
0.9246639488254423
1.1025657728406497
1.10256577284065
0.9538807855298261
1.8680223494308188
0.9122855575412879
1.1025657728406446
0.9122855575412893
0.9122855575412896
2.3718320313238572
1.1025657728406555
0.9122855575412818
0.9538807855298282
1.10256577284065
1.10256577284066
0.9538807855298268
0.9122855575412863
1.5498327900565139
0.9122855575412877
0.9122855575412896
1.1025657728406593
1.1025657728406497
1.10256577284066
0.9122855575412911
1.1025657728406497
1.3034001228400285
0.9538807855298389
1.1025657728406488
2.4217550122781497
0.9122855575412896
1.1025657728406453
1.1025657728406477
0.9538807855298302
1.1025657728406446
1.1025657728406513
0.9538807855298217
1.1025657728406497
0.9122855575412896
0.9538807855298389
1.1025657728406488
1.10256577284065
1.1025657728406446
2.421755012278157
1.1025657728406446
0.9538807855298217
2.2135206807869157
1.1025657728406497
1.10256577284065
1.1025657728406446
1.1025657728406477
2.4217550122781497
0.9122855575412896
1.1025657728406477
1.1025657728406593
0.9538807855298268
1.1025657728406497
1.1025657728406488
1.1025657728406497
0.8154587622877347
0.6891395766831226
1.1025657728406497
1.10256577284065
2.4217550122781444
5.109908114553161
0.9538807855298305
2.4217550122781497
1.1025657728406446
4.238291802603802
1.1025657728406593
5.170026117045604
0.9122855575412896
1.1025657728406488
0.9122855575412877
2.421755012278147
3.188368054353436
0.9538807855298246
1.1025657728406564
1.1025657728406564
0.9122855575412991
5.401412052326622
0.9122855575412896
0.9122855575412896
1.1025657728406477
0.9122855575412837
0.9538807855298389
0.9538807855298282
1.1025657728406497
0.9122855575412913
0.9122855575412893
0.9122855575412869
1.102565772840652
0.9538807855298282
0.953880785529832
1.1025657728406477
0.9122855575412896
0.953880785529832
0.9122855575412896
0.9122855575412893
2.4217550122781497
1.1025657728406488
0.9122855575412837
1.1025657728406593
0.9122855575412847
1.102565772840652
1.1025657728406497
0.9538807855298267
1.1025657728406433
0.9122855575412879
0.9122855575412896
1.1025657728406593
0.9538807855298267
0.9538807855298282
1.10256577284065
0.9122855575412877
1.1025657728406546
0.9538807855298284
1.10256577284066
1.1025657728406513
0.9538807855298282
1.1025657728406433
0.9246639488254423
1.1025657728406446
0.9246639488254371
0.9122855575412913
0.9246639488254422
0.9246639488254502
0.9246639488254461
0.9246639488254424
1.10256577284065
0.924663948825454
0.9246639488254423
0.924663948825454
1.1025657728406497
1.1025657728406497
0.9122855575412893
0.9538807855298232
1.10256577284065
0.9122855575412893
0.9538807855298279
0.9538807855298268
0.9538807855298279
1.1025657728406477
1.1025657728406497
0.9122855575412919
0.9538807855298267
0.9246639488254424
0.9246639488254533
0.9538807855298282
0.9538807855298279
0.9538807855298358
1.1025657728406546
2.3433300550677423
0.9538807855298282
1.1025657728406537
1.1025657728406497
0.9122855575412893
1.1025657728406546
1.1025657728406497
0.9122855575412879
0.953880785529832
2.4217550122781497
0.953880785529832
0.9538807855298389
2.4217550122781497
2.013223201150943
1.1025657728406497
1.1025657728406513
0.9246639488254407
0.9122855575412919
0.9246639488254521
0.9538807855298412
2.2899693773371856
0.9246639488254411
2.4217550122781506
0.9246639488254423
0.9122855575412896
0.9122855575412896
0.9122855575412896
0.9122855575412877
1.9538816228889022
0.9246639488254423
0.9122855575412896
1.1025657728406446
1.1025657728406497
1.1025657728406477
0.9122855575412896
2.2269773793781322
0.9122855575412896
0.9122855575412986
1.1025657728406497
0.9122855575412896
1.1025657728406488
1.1025657728406564
0.9538807855298267
0.9538807855298305
0.9538807855298279
0.9122855575412896
2.421755012278147
2.133846777839297
1.1025657728406604
1.1025657728406513
1.1030215238130645
2.421755012278156
1.1025657728406477
1.1025657728406477
2.421755012278157
0.9122855575412896
1.1025657728406513
1.1025657728406593
0.9122855575412919
0.9122855575412986
0.9538807855298282
0.9122855575412991
1.102565772840652
0.9122855575412986
1.67137555770993
0.9122855575412985
0.9246639488254366
1.1025657728406555
1.1025657728406477
1.1025657728406593
0.9538807855298282
2.421755012278147
1.10256577284065
0.20500836617404983
2.2474902300610307
-0.15306924385279763
1.2612774182846154
0.7062674566424199
1.084307400082607
-0.14763099018758907
3.155870685993479
1.490953195036097
-0.6099137580728371
-1.465424387290097
3.65914686591823
-1.1875117690692942
2.522065082813772
-0.7661343466781504
1.4001999960421418
0.08902177382944276
1.11592183336137
-1.208233530726576
2.788556695997209
0.5881362479044081
1.0584245800292604
2.063595561002086
1.8197028113752896
0.4503022674874536
1.5119548783627084
1.7856199041187044
1.8781993911131205
0.45357154027243696
2.7671409649118233
0.5768297450709232
0.15289692234538904
0.4675694785980061
2.788780350899798
3.1891241017753105
0.5705287081698118
0.5240356863223499
0.9242898149522397
0.4790423575930321
0.4576169461639339
2.7245304615233614
1.4429327954550843
-0.20768204949031166
0.4898182644851975
0.7342528825105714
0.617654115785305
0.22679613320205627
2.1520576682694568
0.027732953750420952
0.3876941222766923
0.5893863647748119
0.0854108343757411
3.158775036168723
0.6738248825769
-1.345225120768097
1.4088958868543144
0.4789725167084876
0.5250433232286892
1.1402769686017244
0.13802230416090033
0.27321161978845043
0.22704091165845486
-1.1310494536429752
2.7031918794720604
2.4478640167807204
1.6931456433879328
-1.0925296065724646
2.050985125493319
0.5124323247811771
1.050836791891884
0.6370039228919593
1.3353328189729672
0.5793022309916156
-0.33138856425659813
-1.2664869453089675
0.8460091140183621
0.503819716835725
-0.30734215646668567
2.8005980537806123
1.2964771532005157
-0.14279598341516797
2.592833061031758
0.5156487009649335
1.0176855239047655
0.40549874391214236
0.5977435510019287
0.5443754960000224
0.6409472108316902
2.3208744975182074
1.627683813154439
0.525729132242204
0.36828391961810786
-0.566419663121336
1.3767711282847466
0.829195136712401
0.33776609603756746
0.44283305301374576
2.2472062732859452
-1.2082335307265821
2.7885566959972032
0.694684743733694
-1.2051545988014176
0.5519670480111969
-0.6608798743848173
0.7851766303909792
-0.3443344025015537
0.12418724203836845
1.086548780432725
0.3949638400244273
0.03304928018747222
0.4390145131272788
-0.07006226055908094
-0.4077590117284773
1.9179416175512258
0.17767198532327177
0.9980007901918271
0.43685171148807733
-0.02814697750702666
0.6001112826251194
0.022027780072327197
2.1857277969525257
1.5808122172362222
-0.3302666900583489
1.3252420288959528
0.829195136712401
0.33776609603756746
0.312707497875516
0.8696039281617077
-1.7424465421361919
1.0173589667209466
2.8694114265600827
0.6724759660167766
0.026476605832002897
3.0422962095612904
2.0425229827404694
0.93544571511195
0.3542083885974921
0.10626446499027703
1.7219591037633555
1.1236745884961992
2.9993844447929403
0.10985384113154273
1.5822801478855975
4.242846727638345
2.4953124668324036
1.375017194078446
0.699688623107332
2.297153093011383
1.4431525851969158
-0.3700322954602375
0.5886432124217538
-1.0535790063947212
0.1846313976734425
1.0292099004114155
0.05920754906653486
0.3725630067887135
3.0602192167428
0.35257279161500465
2.4953124668324036
1.375017194078446
-0.3302666900583554
1.3252420288959463
0.5531077991429068
0.38867766229396095
-0.14279598341516797
2.592833061031758
-1.3607458903859362
1.9455997019056515
2.4739222294900363
0.3562098823231421
0.23469273998708828
0.973910727067235
-0.06988748833769476
0.6347262029982417
0.2618192460141282
0.24592379213545423
0.5534493881254405
0.26304795802442904
1.0502233473488265
1.8974777039322073
3.071385799693121
1.2180551376322237
0.025890409596924346
0.9122392832860249
0.5508328544611747
-0.05771831651001935
0.8915838451796414
0.08077894596313523
0.10927587651774495
1.475958316811504
1.879907763580245
2.2151933634196435
0.4239334022767811
-0.03120800966341247
-0.9827335990294107
2.4523253886718908
1.2182249101433589
2.259796115450705
2.495312466832407
1.3750171940784495
-0.14837959439272375
2.3529623698498607
0.20233373420117107
1.0105445927682695
0.5768297450709352
0.15289692234540087
-2.020158599670142
1.1316197726478552
0.4640700642466449
0.07410619110649552
1.277719707693784
0.6248242896232887
0.4433525284321159
-0.026680826381517538
-0.8753979846423534
2.3128786483241783
-1.6476995902225327
1.3941034898516595
-0.2978660036983889
2.3098699604225987
0.7427669095320613
2.290349994803151
1.2069868117670937
2.2611801030457563
-0.20397278215188713
0.46518074196485215
2.1132112104694794
1.7077025985574916
-0.1898878531030714
0.47319916459155775
0.5815003818398106
2.2977153776624473
0.5719161026881106
-0.9640678918968204
3.24647279745616
0.3560575357561728
0.17303038973024365
1.8060952592341475
0.23105027224529362
0.2614708155128591
0.5212998104696039
1.5821869594493925
0.5222927997008946
0.3860420494271412
0.91495850474961
0.34936073238040377
0.1508932875385805
0.5601944193046476
-2.038757375400486
1.3659511983630748
0.6996495664149451
0.3905420825340661
1.4743768658322443
1.9236312967653928
0.4869007867521883
-0.23030823812626366
-0.30447309755370844
0.5033635385821938
2.153854605758971
-0.06537626657903894
2.8289836517950366
0.7860273454869259
0.48498215765106956
-0.2015542173573609
-1.507916372836371
1.5663808828097059
-0.37399925409251467
1.4048758924876608
-0.11855313847102478
1.1309612308858634
3.020959211122542
0.12254496495783496
-0.3295958538244126
0.9565545541224345
0.46244093489902616
-0.1401011098001575
1.9407542473112551
1.7583891867134784
1.7907369845679142
-0.09364377030364324
-1.8872784817280062
1.377668149660396
-0.012230666555063108
0.41206419698166274
0.44015432018284395
1.56634545219567
0.5837176160603526
0.4287608120067319
0.45851521393217026
0.5329769853655733
0.4218947674638308
2.3391020825250086
1.9381821827503447
1.7073751514252935
2.739560285374071
1.3212275292044424
0.5222927997008946
0.3860420494271412
2.5942667375618567
0.35139190216666916
0.4032882783573164
0.02685881759556974
0.7851766303909914
-0.3443344025015418
-0.16820818249692338
0.4561938733117096
1.323071319382103
-0.08464845316688535
3.2451695117894106
0.45888664777524757
-0.46977098837469233
2.548919851474218
0.5560407927346033
-0.08586983783912604
2.937588014894997
1.3719394252858803
-1.3969739078405337
2.660410976588712
0.4503022674874536
1.5119548783627084
0.4101562543540884
0.8799421283466922
0.312707497875516
0.8696039281617077
-0.27037786319414603
0.5731941628633603
0.6186137092047936
1.8412122928384758
2.716977475742876
1.3771596264540558
1.3230713193821058
-0.0846484531668833
0.503819716835725
-0.30734215646668567
0.41378089735131174
1.5246443431393477
0.005719372526807074
0.5439097490331316
0.41492583964968066
1.1288126176553086
0.34824135900027076
1.9279348374980958
0.5720807184204402
2.314917538814566
0.43405359309769254
1.4999929642020176
0.5849370653168138
-0.13071869495460592
0.36024366641411754
0.7919769537463031
1.3795162960792782
1.3906223418679795
2.786650416796533
0.6497013145207085
0.5162187714458455
-0.3745862245697786
0.18672971793340726
0.29266916458985365
0.312707497875516
0.8696039281617077
1.0159982655686552
1.8142823737841252
0.4740282477157538
0.5506685620409856
0.08697175436854332
2.1313034960635004
0.3127074978755112
0.8696039281617032
0.18672971793340726
0.29266916458985365
0.4239334022767811
-0.03120800966341247
-0.3302666900583554
1.3252420288959463
-1.345225120768097
1.4088958868543144
-0.054905991041732105
3.5655878653903206
0.38375258432266157
0.48011020854994724
0.6476945706458603
4.0170433314042615
0.12418724203836845
1.086548780432725
1.4909531950360888
-0.6099137580728453
1.3131946540021608
-0.355820402742254
0.4504040953969969
0.6018354175750243
0.5967370335739453
-0.11527152578247934
-1.0917136253858288
1.985115168927373
0.6388273807985865
-0.2706132577086486
2.290721625521724
1.9106829162095962
0.5025433182642615
0.45330394498013765
0.6171338861960542
-0.7784748696171279
-0.9665106288884651
1.1676807107752047
0.5162187714458509
-0.3745862245697737
0.3442847615644088
3.117480757609258
0.6053777757950236
2.698273678997791
0.6129609438292598
2.6517896257617517
0.6053777757950236
2.698273678997791
2.862211112005564
2.1860830106665796
0.503819716835725
-0.30734215646668567
3.077169857751171
0.8799017766111288
1.0102198160041123
2.294301517007005
1.5129339883326063
-2.4841621826613904
-0.22970228974086326
1.292275036588916
1.1402769686017244
0.13802230416090033
0.312707497875516
0.8696039281617077
2.714505802249138
2.186208746821241
0.5854694908318212
-0.7335807705509215
3.093992251806574
-1.3232192620265055
-1.158909063108466
1.4128903877199908
-0.41820625057627536
2.3103272488123983
0.7427669095320613
2.290349994803151
0.6554399771958861
2.324521633622292
0.6316468673823314
2.5238720751229478
-0.054905991041732105
3.5655878653903206
0.4503022674874536
1.5119548783627084
-0.17576869786242647
0.48114446919945386
-0.14279598341516797
2.592833061031758
2.4478640167807204
1.6931456433879328
0.5390577674138789
0.3227643094665893
0.06388630296635545
1.516610451023789
2.0516154924434904
2.0319347998202577
0.02430154556678482
2.47224851756193
0.15983787242388603
1.5650221623457805
0.46579725262022675
-0.1396395062486383
2.5673791762893536
1.426678124083785
1.9177589635380552
2.269625583653227
3.147721994239774
-0.3984052095731734
-0.2602707690549726
1.0121737652690135
0.41405001187858703
0.6980947310331236
0.5708784036730379
-0.9425171892864087
0.5162187714458509
-0.3745862245697737
-0.20397278215188713
0.46518074196485215
2.8861755259100677
0.31345243705090575
1.4479973395165682
1.8534189438209099
0.5621408542309134
-0.7915212336598125
0.8049333223507249
-0.6013774661316402
-0.21523805860571177
0.5590002906815531
0.4533891180452988
0.2591188166713109
0.69985650257431
-1.8634971156511637
0.1867297179334014
0.29266916458984765
0.4967622187537434
0.8530108597818515
-1.7443062175589037
0.6778012777793665
-0.015183811831615435
0.5465370620849028
-0.12119530087299935
1.2466313456295213
0.4051941887794084
1.7271298979183296
-0.16867422878204666
0.5636721621652356
0.4866262951342022
1.276345190525815
2.11446976852883
1.1029932820209316
0.7625529996573079
0.36643413878679953
-0.3302666900583554
1.3252420288959463
3.071385799693124
1.2180551376322268
0.1202696894033175
0.5731835559453551
0.5410452747754592
-0.46487564806106124
-0.047934261910953735
2.413338570512648
1.393373272239271
3.184616770351069
1.1833103452307285
3.03458842804281
0.16195580495338668
2.07246515121909
3.0052257657605015
0.9411600105160847
0.7625529996573053
0.36643413878679676
0.6566797093131255
-0.46040029397235405
0.44015432018284395
1.56634545219567
0.2680542985795087
1.9419872283473574
-1.9036846696868888
0.8639277465038653
0.46244093489902616
-0.1401011098001575
0.5264762655630721
0.8949816958783816
0.4439898500089296
0.2206627421335657
0.41513194259510194
0.6843463004295129
1.4803222323415535
-1.5368354526415353
1.4587218775249045
-1.7407573642521392
0.312707497875516
0.8696039281617077
0.4812907558851107
0.194644727529976
-1.345225120768097
1.4088958868543144
1.5893812262128113
0.5939927652036017
0.5481587068356804
0.5757375501803965
1.7190054438522633
-0.11943017397711375
0.6286280114343359
-3.0409663434328746
0.5089652804316882
1.0851100755252419
2.581484919861636
1.4828291273897032
-0.7391646664228682
0.5461551072103352
2.459943607485856
1.5967862137165127
0.5222927997008946
0.3860420494271412
0.6515846428036425
-0.40095683934426596
0.2730895949163229
2.729293410710188
0.435194185367436
0.593886768034789
0.2924284403342477
0.19132390865682852
2.0397553232447776
2.0375423236619348
-0.26753509849414425
2.6504155027467364
0.07096776228401624
0.3787390388786152
0.48081120502844665
1.3193202645894915
0.26824068807318624
1.2543596291923713
-0.3302666900583489
1.3252420288959528
2.3208744975182074
1.6276838131544396
0.6827581140773297
2.2977528246449053
0.7279993149299349
-3.6199080939217754
0.24361027415260483
0.5089913228577246
3.1145076050618807
0.22452047649268853
1.225536468679517
2.200090145068822
0.4808720400990014
-0.2060681006639261
0.2592570624964139
2.1475882465561367
0.021059693121570522
1.1657427883098812
1.7856199041187044
1.8781993911131205
3.1112723010213235
-0.029508806747396865
2.9086210390385463
0.20097013102718775
0.4239334022767811
-0.03120800966341247
2.3208744975182074
1.6276838131544396
0.12418724203837639
1.0865487804327325
0.35534052922870524
0.8656026025033532
-0.001558383293343707
0.6115060200690252
0.3007006543589207
2.055500445794121
-0.043906263847277194
1.2061373469988599
0.20236525532410807
1.8288767783638367
0.4383957035754078
2.275560310963049
0.17109537944900344
2.300588620325614
3.071385799693121
1.2180551376322237
0.5760784585518186
-3.4281683438081023E-4
2.0731185625960595
0.03620924705200457
0.35190074691272044
0.41452297494238827
-0.16867422878204666
0.5636721621652356
2.0283406941690134
0.8175548884969679
0.3848650369680984
0.917567210976077
1.260814772273085
0.007245679551354245
0.36952405110915154
0.08071041394756895
2.908989196843977
1.1071275869894763
0.2592570624964139
2.1475882465561367
0.7016884501341438
-1.514003841819445
0.6854072453297053
-2.4461720625275105
0.5698526692539927
-0.5135373658539828
0.17109537944900344
2.300588620325614
-0.29660636478765134
0.9827881774476037
0.6210658900268101
-0.12132066381725878
-0.2115748151296709
2.4898382698938106
0.694684743733694
-1.2051545988014176
0.38827791819145596
1.5405057536502995
0.41513194259510194
0.6843463004295129
-0.014013415068821922
2.1180711571951796
0.2592570624964139
2.1475882465561367
1.7257790410522023
-1.005037533344927
1.4431525851969158
-0.3700322954602375
0.48607539160432445
2.7202748869164863
0.5688167718241601
1.3600128240291138
0.3168540837001389
2.639526506869481
2.113211210469479
1.7077025985574916
2.4401111511959552
1.8685219207304824
-0.3302666900583554
1.3252420288959463
0.47904235759302805
0.4576169461639298
0.47904235759302805
0.4576169461639298
0.9751807527766632
0.26060816078761956
0.18550624406485844
1.0280827451836794
-1.0336253659897965
1.428153169902841
3.0713857996931204
1.2180551376322235
2.5942533799949974
1.4542563178687593
-0.3302666900583554
1.3252420288959463
3.000293677784204
1.168087010340995
0.6881664119206854
-2.996509289022146
-1.345225120768097
1.4088958868543144
2.3208744975182025
1.627683813154435
0.3895906431824834
1.9720726915405047
0.5664228264610138
-0.859592431126348
1.5038426101779423
-0.5534409916288597
-0.11156083570690789
2.8254058349166673
0.503819716835725
-0.30734215646668567
0.63072990343514
-0.19866802739855868
-0.1557293233820024
0.45285239381569997
-1.9806132807155952
1.065003673467557
1.6245284852725383
1.3502716058379047
0.12418724203836484
1.0865487804327212
2.3895080312716033
0.35562919843612384
-1.8128578746259656
1.3830958852754847
-2.6014485386370194
2.492200401328036
1.0142921877379194
0.28758053982982557
2.280434360895078
0.47477333192263493
0.6025506987113555
0.006767619059162122
1.563405700035824
1.6956958057313778
-0.0937235643898997
0.9446812772640139
-0.2627512555455716
0.483112130681724
1.0552338204619218
0.20712983584835576
0.4922751254731086
0.712044068595079
0.35420838859749404
0.10626446499027975
-0.06857578456892666
2.15861666442621
1.2938144203720068
1.9880661316071535
0.5519670480111969
-0.6608798743848173
1.5012642336983129
-0.7049632350684474
-0.0036431317573314415
1.1818619579512348
0.5672204547094295
0.13878191078315005
0.46244093489903354
-0.14010110980015159
0.21608728573679503
3.3257555184028575
0.35339092104693726
0.8193971841657103
0.46244093489903354
-0.14010110980015159
0.7256643017288305
0.3633943085640112
3.0536764283385747
0.10486346351032838
-0.7487942977546471
2.925295341491629
2.3373445711101457
1.7367768775446166
1.7416519855787027
0.5865785227474094
0.41513194259510194
0.6843463004295129
1.273528805284038
1.2254968510131117
-0.4077590117284802
1.9179416175512225
0.63072990343514
-0.19866802739855868
1.5058094319749522
-0.7266782588569408
0.975180752776663
0.26060816078761956
3.3990725084181665
-0.18714687957144072
0.1382096309693921
2.93088568338447
0.6959962307074494
0.33154301374261097
0.005719372526807223
0.5439097490331314
0.15089328753858017
0.5601944193046474
0.5534493881254405
0.26304795802442904
0.22679613320205827
2.1520576682694585
0.41513194259510194
0.6843463004295129
2.127636344309072
0.7690435825456677
0.05568774395120446
2.309615204558538
-1.0888018498595098
2.054709047058133
-0.04890809076823055
2.5325702738514373
0.5038197168357251
-0.30734215646668583
0.5424175518043679
0.24110946154138668
0.13102540092001747
2.355828821600953
0.5038197168357278
-0.3073421564666837
-0.14763099018758408
3.155870685993484
2.9586131895315098
0.054339871890957514
0.555039703157873
-0.696624719134541
0.5392176068752254
-0.5366781465612772
2.3208744975182074
1.6276838131544396
-0.11376798273750668
0.5579537863933403
0.5264762655630721
0.8949816958783816
0.35086073110749894
0.3454765702211837
2.307445811352385
-0.42261068475161534
0.3514217249588133
2.556311112471772
-0.001558383293343818
0.611506020069025
-0.12119530087299935
1.2466313456295213
0.2592570624964139
2.1475882465561367
1.670249737632097
1.6516866316420191
3.209778902530786
0.531650792254384
0.2924284403342477
0.19132390865682858
0.5768297450709232
0.15289692234538904
0.3837525843226619
0.48011020854994724
0.21608728573679514
3.3257555184028575
0.6818472300323571
1.5790537785156948
-0.01489128033323417
0.43279752002068705
1.9381821827503447
1.7073751514252935
-2.0742620165031154
2.7326724516928653
-0.3547347981921223
1.1502087315760217
1.3486544364296102
1.9376708097379176
0.516218771445851
-0.3745862245697735
1.2881150254666551
0.6351335064325976
-0.13605887202913491
2.368387798288914
1.1780982343999447
0.2894703936465517
0.264335682312937
0.9439801189719474
2.846549339107046
-0.986077094974789
0.44784687668669365
-0.08803910815659233
0.1382096309693921
2.93088568338447
2.4961098304736087
-0.07417573618107487
0.7362167110430033
0.4803863652538693
-0.012312120719908726
1.8819157088018637
-0.14763099018758408
3.155870685993484
0.47931356992662705
-0.1379376572642593
-0.7731154274037115
0.6071160583085125
1.926275167441466
-0.34155705379168805
-1.158909063108466
1.4128903877199908
0.5177580457171324
0.08446682784175036
0.908136259726346
1.8382959513643624
-0.3302666900583564
1.3252420288959452
0.3519007469127209
0.4145229749423885
0.3761244722161536
0.9127806748241645
1.4103572631621932
-0.025250640089879983
0.20500836617404983
2.2474902300610307
1.583104496581651
1.816908190169471
0.47589717470327997
-0.18712898368457903
0.5196468052463925
-0.39523287555427944
-0.16674937304230864
1.1630804050564763
3.454660630800203
0.21503560761941565
-0.2602524037472153
0.5667331620414982
0.25405302028882604
1.019833855188223
0.516218771445851
-0.3745862245697735
-1.6476995902225369
1.3941034898516553
0.5463557219128691
2.098067204670438
1.458721877524904
-1.7407573642521397
1.344083042836921
2.2349464905753478
0.551314551519722
0.05941541984169896
0.41513194259510194
0.6843463004295129
1.1255624344162571
-0.5736643056836439
0.4239334022767812
-0.031208009663412414
3.4047621544720825
0.4528192037430756
-0.6715849541881582
1.2479682830499752
-1.5045464857781239
0.9762657450434413
1.4927544231762018
0.28749154193448745
0.12418724203836962
1.0865487804327263
1.7507692989344954
-0.09562314011136375
0.6566797093131255
-0.46040029397235405
-1.7648920878743755
2.0888985780494718
0.312707497875516
0.8696039281617077
1.9524204194903139
3.2181088944317784
1.2938144203720001
1.9880661316071468
0.8951271160495616
-2.7527214216989404
-1.7030391638752052
0.7122567372774153
0.5753338683868636
-1.0426854092127749
-2.0272112513899865
1.1245377721302394
-1.6191365541376146
2.219258967819003
0.8243723218923624
-0.11004576489919504
-0.054905991041726776
3.565587865390326
1.3844338132216816
-1.235641056738415
0.4789725167084876
0.5250433232286892
0.6019932990639905
0.6597736469689588
0.3735227419621172
2.2136325836252015
-1.442849012388484
1.70257818946112
-0.4476826469045268
0.586944615915689
0.20215272891799588
0.30005156144600337
0.4672437820427242
1.4111133572615957
0.5038197168357251
-0.30734215646668583
1.7111611874025687
1.6707559312807865
1.1402769686017247
0.13802230416090056
3.03080593339226
0.14114286585870983
0.5496636976471766
-0.5407316179591269
3.110388835866261
0.6990739800415551
-1.8259989410359856
1.3226920433900218
0.06743517753649009
0.8139355444993064
0.20233373420117107
1.0105445927682695
0.2592570624964139
2.1475882465561367
1.8834279935976963
1.6591182927152581
0.2220552188650613
1.1090324853493183
2.3801085400093926
1.5999064786559953
-0.26753509849414425
2.6504155027467364
1.4183688039301892
-2.0687925102986355
1.263691160824985
1.5354395400988692
0.21643726490512571
1.8571253255237352
1.9910391958893725
0.19817582583925591
0.22102760117097897
1.8338659270425146
0.5104630397022086
-0.34202871725935535
0.7507537488342252
-1.5379204392017973
-0.8105872800691585
1.2185946974248663
0.37114350110026995
1.8540095770518281
0.4201865908292619
1.5437610399914616
-0.6701776288820807
1.3907961981803854
0.5456969862410863
0.6187382036625597
0.5119387899699703
0.6757184074630347
0.40518167008866934
0.052111607500499924
0.46244093489903354
-0.14010110980015153
-4.838894367652285
0.7058612647015798
0.2899333140593918
3.2172799899314994
0.21564491329830782
0.5867528793076697
0.3168540837001387
2.639526506869481
3.2464727974561582
0.356057535756171
0.6365555351204892
-3.0256910944317443
-0.697540389910867
0.5369798092443792
-0.40379044118862406
2.048132956595529
0.312707497875516
0.8696039281617077
-0.3302666900583564
1.3252420288959452
-0.1206698082843437
1.6468342585716305
0.3514217249588133
2.556311112471772
-1.6476995902225327
1.3941034898516595
-3.2420504860023467
0.6326220541183851
0.5909150893405726
2.040296635475069
0.1516566509119624
3.748629950891004
0.4998557614024701
0.35682001705746114
3.366346809681978
0.596725415746926
1.511930016273427
-0.9944020449436716
0.18672971793340098
0.29266916458984693
-0.14279598341516797
2.592833061031758
0.41740303954851454
-0.005383915477287782
-0.18518543586369562
0.47585567241986004
0.2899333140593918
3.2172799899314994
0.3949638400244272
0.03304928018747233
2.6046291724965878
0.9353029488265765
0.37420425258276824
0.07246091214279904
-1.9260039126140283
1.964966807145019
0.41352867300301815
0.3317824646328915
1.3230713193821102
-0.08464845316687797
-0.9815910004251096
1.760067200769327
-0.5311949224319606
1.0473442457777165
2.7129695327166488
1.5527860512156972
0.6335853539628888
0.2225393096145909
0.20215272891799588
0.30005156144600337
-0.6883634856298144
1.7671499337497714
0.4790423575930274
0.4576169461639291
0.13102540092001747
2.355828821600953
3.3111292921957425
0.7646514495749006
-2.854304317110441
1.6735955854533238
-0.30919654871871394
2.0252842406152753
2.3373445711101426
1.7367768775446133
0.41352867300301815
0.3317824646328915
0.5288675124722128
-0.3764690812855285
-0.31752592759570386
1.7258996626412153
0.4869007867522014
-0.230308238126253
2.211779877880032
1.6727398733435224
1.0237011015683153
-0.1417982180886399
3.3681653958496893
0.12016051871630035
-0.3302666900583489
1.3252420288959528
0.2618192460141281
0.24592379213545412
-2.2530958980099545
1.3483229699996606
0.3949638400244272
0.03304928018747233
2.307445811352385
-0.42261068475161534
0.312707497875516
0.8696039281617077
-0.825174192996957
0.6974215055621764
1.7184948381884013
2.1572122286905966
3.0190330370760616
-0.22570789774204147
2.495312466832403
1.3750171940784457
0.5734307336545605
0.09897493854876138
-0.05490599104173166
3.5655878653903215
1.474376865832233
1.9236312967653815
1.4288334810837033
0.7275139938553977
0.5724231771547581
0.02790050531099164
1.0454838885520958
-0.9173768880780081
0.23436547163372956
0.25894359849687687
0.7944764824872872
-0.6200107873970158
-0.43782909776420387
1.7566621484949534
-0.8115111954743639
1.4036133114153602
1.4147791285304572
-0.2806227164703124
2.7866504167965247
0.6497013145206989
0.7183906591300445
0.9305724120052021
-0.8987209800093796
2.425486304465934
-1.345225120768097
1.4088958868543144
0.5949528414771749
0.05323698309525711
0.4504040953969969
0.6018354175750243
-1.3452251207681027
1.4088958868543084
-0.21230906376201752
1.6875058499037794
0.4239334022767812
-0.031208009663412414
-0.22419857343219396
2.2457019906253857
0.379402108394031
2.4789309802491633
2.063595561002086
1.8197028113752896
1.9346555903370668
1.8213460995470592
0.2808761963716423
0.20467474956727116
0.7607504023881655
-4.681012453542991
0.7128226121529999
-1.760686697750725
0.11005652970087448
3.4428683136811467
0.19443191945134985
0.29637628710007047
-0.1081895775396699
1.9396641561766657
0.14630109294247762
0.4528809053038684
0.312707497875516
0.8696039281617077
-3.1234983688781206
1.2416026753691227
0.6802191570973355
-1.3228544707820495
2.8861755259100677
0.31345243705090575
0.3597639805214986
1.8914202206424886
-0.27037786319414925
0.573194162863357
0.12418724203836934
1.0865487804327256
0.037630809585490144
3.5039739861902848
2.178949531066155
1.71831117091287
0.5177580457171324
0.08446682784175036
-1.3452251207680965
1.4088958868543149
-0.28547575335394515
1.3781877311029063
0.5918205070870619
0.986601286703769
2.6583678418197216
1.426180656723266
-0.05871609898344882
0.524625401097005
0.8032041044944971
-2.5741528329853813
0.4188645620949135
2.9407461298588564
2.0359737082891125
1.6766973684236868
2.2113374930162766
0.0914072137813805
2.023334830825672
1.7356092545700685
3.210639439020734
0.5025457341147014
-0.6655759438161917
2.0733310047751594
0.5222927997008935
0.38604204942714004
1.2793846910528988
-1.2523201599023426
-1.483926986144664
0.8003504869810381
2.930517945712184
-0.11465647297401627
2.80811861537208
2.193684083038435
1.4564862460078998
-0.42123715578682464
0.5853308335393184
2.1689427627103313
0.3519007469127209
0.4145229749423885
1.0552338204619218
0.20712983584835554
0.41352867300301815
0.3317824646328915
0.2730592864621675
1.9118877362346764
-1.0925296065724632
2.0509851254933205
0.27096202543617953
0.4414275708323041
2.0284057823868764
0.5375554932544673
0.5331700658413953
-0.48792584389042265
0.1867297179334019
0.292669164589848
0.2140347663772172
1.9461395591066117
0.4433525284321158
-0.026680826381517704
0.6789912949232679
-0.8009942020515802
0.007712560074818409
1.8539271413992968
4.212804031888296
1.4871847183503655
2.6167560663728886
1.6107232646991951
1.5163518955228654
0.1770999925743948
3.110388835866261
0.6990739800415551
1.3248159460950708
2.237651522616926
3.1551920060559557
0.11102812055934758
1.1402769686017247
0.13802230416090056
2.4200336414300136
-0.11315174349391299
0.24361027415261044
0.5089913228577291
-0.14279598341516475
2.5928330610317616
3.442620654524549
1.3788276736880607
2.4510396496893634
1.8668276217167281
0.6734853945374328
0.39774137627929085
1.4714695363778698
0.6252762066658681
0.37923306310997984
0.06928832002380259
2.3946329904551487
-0.12634619001056302
3.2464727974561582
0.356057535756171
1.4183688039301892
-2.0687925102986355
3.071385799693121
1.2180551376322237
1.2608147722730834
0.007245679551352913
-1.8872784817280055
1.3776681496603962
0.45040409539699666
0.6018354175750239
-0.10573032344145056
1.9420344653950146
0.6666852034718127
0.8859816782417103
0.20500836617405072
2.2474902300610315
0.7041497489844497
-2.2753913900950447
-0.754487434141861
0.5371099310139086
-0.5826723577370828
0.5237533019782666
-1.1875117690692947
2.5220650828137714
-0.3302666900583564
1.3252420288959452
1.0860668483385578
-0.47554204731418603
-0.9385204733118284
1.4101354262024186
0.9410840068725412
0.657849513344569
0.8291951367124
0.33776609603756624
0.4239334022767811
-0.031208009663412414
0.4151319425951024
0.6843463004295134
1.2926274645280693
2.230168530200738
0.5141548435657548
4.474786195645438
-2.882109998433672
-0.5900706519885888
-1.074628096530558
4.550187253698987
-0.013530186588716742
1.8723626144552294
3.8156567175940594
0.6954570341993689
-5.107995384446103
-2.3455207898037447
2.8470001837186834
-0.6141938162409482
3.9457426193245535
0.8934547568412412
-0.4048995415143337
3.3954876980119315
0.4397228056161091
-0.9796696287410983
2.8460986207281627
-1.1256366051489024
-3.8085629276096653
0.5588279899533743
0.5582585863525908
-3.500835208753234
-2.786780792606028
0.4743640603333752
0.49445139050867176
2.6655678783120202
-0.009151338965668998
2.0976999347268466
3.5616210758331044
0.9020177736288588
-0.9268106392999962
5.671289901892913
-0.7907874701083384
-0.07077708967824536
0.3607589273378502
0.44935350663326323
0.035099597698939805
4.538987609940991
-0.10257813709382013
-2.6664229638801555
2.29036046153112
0.18912757373914146
2.075020374783088
3.3251672973619724
0.19060778236130194
-3.5572313818200834
1.9695931660058403
0.3934288802208379
1.7931776028636597
1.9768780797537506
0.34233563429569336
1.300251604659476
2.582564370217676
0.26563498730884705
2.253170374853789
2.4368708517438793
0.526395048907875
-0.8697745889406234
-0.7349404376037522
-0.1998478785715313
0.15978956311849657
0.34069915900468195
-0.3313833596976412
-0.8007037344586365
2.0307926693303058
-2.6117098558967964
-1.3424178802432971
5.6463767817867545
-3.055077041303441
0.6127178596115397
-6.388079206024317
-4.055784304042884
0.5945425927282151
-6.587791480059109
-2.516741464451253
0.6160755453344522
-5.801351310324973
0.5178115609148484
-1.2846397781342336
-0.1369236287262587
0.6413719050272484
-1.6447889769211297
-0.9698715416145468
0.37235346631011645
-2.132878978789445
3.5978981377686465
0.42118034823270767
-0.23051891325954577
1.5915711595338338
-0.8280311796046849
0.9032694940132691
-4.41682571497562
0.2901925603824498
0.6802243095896203
-2.4970091402529406
0.17885494677595526
0.5384495947241295
1.3457579534998696
0.5298260895120155
-7.443569921698637
-0.06889400442734983
-1.5714095929874938
-3.681932095489445
4.375956518523412
-0.9691582810516826
-1.1111828388200107
4.492707630854054
-0.6222689498172651
-0.22775519922268184
3.347823276367169
0.6414562421375636
-4.075274667235426
-5.328065893735914
0.6320861529245598
-3.7676268156533004
-5.938492692166712
-1.431482047403613
0.6660572781719725
-5.824804293594828
0.29215172696426794
-1.3856880024582918
3.8778302678922456
2.5138020469285145
-1.502990820155833
0.7347748229314096
0.30407342117377545
-0.1926417012146635
1.5610132572030933
-2.9933056374136107
0.6249171696541591
-8.545908756786252
0.13947173353257525
-1.399868776739372
2.025438277707515
0.4901492865967718
-2.303203244026654
0.016349819650143704
0.5421818493848325
-3.4813329167442237
3.39823684208435
0.42758896188580353
-0.05031237515616116
-4.872800128970102
0.4900190720620441
0.5792605221796928
1.305513233983989
1.2028729333887092
-1.1211375710344351
3.288881208680322
-3.8807934231770442
0.6964761867544969
-7.179455819760302
-1.2753859931612999
-0.31302445476694324
4.395500163588447
0.5133877814308736
-3.287150941840668
0.341405855709656
0.22994216283156743
-0.5916248400892057
3.7764638848653145
0.6076132875738334
-8.41008817598382
-6.49696032999156
0.6767607611044317
-0.976873203829975
-5.6929686925116005
-0.7575737777029139
-0.970794078721292
3.830610795285107
0.514846295112297
-3.115369440372247
4.0045079451842955
-3.662418549838243
0.6268376194804599
-5.0960384343879985
0.6320462009534902
-3.2001548064521557
-7.721919282685236
1.2346412094369341
-0.364133799874764
2.4877403617934433
1.7277595529934957
0.27139209543813303
0.8091785223504573
0.6100098201376614
-1.0603361253780392
-3.8236518045562007
0.625471164710032
-1.1529556710712137
-3.2281988097635286
0.6222505421149864
-4.3592502962043
-4.543268979325486
0.5778818658859312
4.848527225544412
-0.6308047847018944
4.8529404671954515
-1.0184031498256507
7.542869746845645
1.7116534606866227
3.402734565609348
0.5325224892864956
4.0168689071775425
0.07207095629520893
4.655029662854365
0.6278289166624861
4.716152719527012
0.4653027902893915
4.183264059361944
1.9461670429558162
2.167125823541845
2.0661870874565107
6.299694744413866
0.25027780845593117
1.5801721641323465
-1.8188939335609253
4.843506314678066
0.6278289166624861
4.716152719527012
0.5280346922357699
3.0480424815756493
-0.9108306973009802
5.662399755351546
0.07207095629520893
4.655029662854365
0.06774374452934584
1.7900554929214503
0.6049599003133909
4.780295080167547
0.6101270541406283
3.7461667777634586
0.07580998856103072
7.315327045250008
1.9601411023990811
1.8601921629050087
0.6921488270851132
4.492790557497858
0.28059258703794177
1.5313827616230853
-0.2577437806077232
4.795218555197168
2.1285111034927704
5.313040374128973
0.6713885987256822
3.421765841536528
0.19855138190509347
4.55836653715004
0.688520634398152
2.271969833931065
2.0970949485959087
1.7875753443927966
0.6270318474235036
2.7982677118585353
4.080700723899744
6.438615319712083
0.3544508155077932
1.3864603354721845
0.7351636623145433
6.675397734873259
3.4122404112878466
-0.8717376235776315
0.35495483795191374
4.378297756575647
